digraph Tree {
node [shape=box, style="filled, rounded", color="black", fontname=helvetica] ;
edge [fontname=helvetica] ;
0 [label=<X<SUB>20</SUB> &le; 0.5<br/>entropy = 1.0<br/>samples = 3848<br/>value = [1924, 1924]>, fillcolor="#ffffff"] ;
1 [label=<X<SUB>55</SUB> &le; 0.5<br/>entropy = 0.956<br/>samples = 2629<br/>value = [1636, 993]>, fillcolor="#f5cdb1"] ;
0 -> 1 [labeldistance=2.5, labelangle=45, headlabel="True"] ;
2 [label=<X<SUB>70</SUB> &le; 0.5<br/>entropy = 0.912<br/>samples = 2281<br/>value = [1534, 747]>, fillcolor="#f2be99"] ;
1 -> 2 ;
3 [label=<X<SUB>68</SUB> &le; 0.5<br/>entropy = 0.933<br/>samples = 2128<br/>value = [1386, 742]>, fillcolor="#f3c4a3"] ;
2 -> 3 ;
4 [label=<X<SUB>52</SUB> &le; 0.5<br/>entropy = 0.946<br/>samples = 2022<br/>value = [1286, 736]>, fillcolor="#f4c9aa"] ;
3 -> 4 ;
5 [label=<X<SUB>40</SUB> &le; 0.5<br/>entropy = 0.957<br/>samples = 1920<br/>value = [1192, 728]>, fillcolor="#f5ceb2"] ;
4 -> 5 ;
6 [label=<X<SUB>64</SUB> &le; 0.5<br/>entropy = 0.968<br/>samples = 1817<br/>value = [1099, 718]>, fillcolor="#f6d3ba"] ;
5 -> 6 ;
7 [label=<X<SUB>56</SUB> &le; 0.5<br/>entropy = 0.961<br/>samples = 1769<br/>value = [1090, 679]>, fillcolor="#f5cfb4"] ;
6 -> 7 ;
8 [label=<X<SUB>49</SUB> &le; 0.5<br/>entropy = 0.981<br/>samples = 1446<br/>value = [840, 606]>, fillcolor="#f8dcc8"] ;
7 -> 8 ;
9 [label=<X<SUB>47</SUB> &le; 0.5<br/>entropy = 0.992<br/>samples = 1229<br/>value = [678, 551]>, fillcolor="#fae7da"] ;
8 -> 9 ;
10 [label=<entropy = 0.998<br/>samples = 1099<br/>value = [581, 518]>, fillcolor="#fcf1ea"] ;
9 -> 10 ;
11 [label=<entropy = 0.817<br/>samples = 130<br/>value = [97, 33]>, fillcolor="#eeac7c"] ;
9 -> 11 ;
12 [label=<X<SUB>62</SUB> &le; 0.5<br/>entropy = 0.817<br/>samples = 217<br/>value = [162, 55]>, fillcolor="#eeac7c"] ;
8 -> 12 ;
13 [label=<entropy = 0.739<br/>samples = 201<br/>value = [159, 42]>, fillcolor="#eca26d"] ;
12 -> 13 ;
14 [label=<entropy = 0.696<br/>samples = 16<br/>value = [3, 13]>, fillcolor="#67b4eb"] ;
12 -> 14 ;
15 [label=<X<SUB>21</SUB> &le; 0.5<br/>entropy = 0.771<br/>samples = 323<br/>value = [250, 73]>, fillcolor="#eda673"] ;
7 -> 15 ;
16 [label=<entropy = 0.262<br/>samples = 90<br/>value = [86, 4]>, fillcolor="#e68742"] ;
15 -> 16 ;
17 [label=<entropy = 0.877<br/>samples = 233<br/>value = [164, 69]>, fillcolor="#f0b68c"] ;
15 -> 17 ;
18 [label=<X<SUB>16</SUB> &le; 0.5<br/>entropy = 0.696<br/>samples = 48<br/>value = [9, 39]>, fillcolor="#67b4eb"] ;
6 -> 18 ;
19 [label=<entropy = 0.511<br/>samples = 44<br/>value = [5, 39]>, fillcolor="#52aae8"] ;
18 -> 19 ;
20 [label=<entropy = 0.0<br/>samples = 4<br/>value = [4, 0]>, fillcolor="#e58139"] ;
18 -> 20 ;
21 [label=<X<SUB>6</SUB> &le; 0.5<br/>entropy = 0.46<br/>samples = 103<br/>value = [93, 10]>, fillcolor="#e88f4e"] ;
5 -> 21 ;
22 [label=<entropy = 0.254<br/>samples = 94<br/>value = [90, 4]>, fillcolor="#e68742"] ;
21 -> 22 ;
23 [label=<entropy = 0.918<br/>samples = 9<br/>value = [3, 6]>, fillcolor="#9ccef2"] ;
21 -> 23 ;
24 [label=<X<SUB>30</SUB> &le; 0.5<br/>entropy = 0.397<br/>samples = 102<br/>value = [94, 8]>, fillcolor="#e78c4a"] ;
4 -> 24 ;
25 [label=<entropy = 0.087<br/>samples = 91<br/>value = [90, 1]>, fillcolor="#e5823b"] ;
24 -> 25 ;
26 [label=<entropy = 0.946<br/>samples = 11<br/>value = [4, 7]>, fillcolor="#aad5f4"] ;
24 -> 26 ;
27 [label=<entropy = 0.314<br/>samples = 106<br/>value = [100, 6]>, fillcolor="#e78945"] ;
3 -> 27 ;
28 [label=<X<SUB>30</SUB> &le; 0.5<br/>entropy = 0.208<br/>samples = 153<br/>value = [148, 5]>, fillcolor="#e68540"] ;
2 -> 28 ;
29 [label=<entropy = 0.0<br/>samples = 133<br/>value = [133, 0]>, fillcolor="#e58139"] ;
28 -> 29 ;
30 [label=<entropy = 0.811<br/>samples = 20<br/>value = [15, 5]>, fillcolor="#eeab7b"] ;
28 -> 30 ;
31 [label=<X<SUB>37</SUB> &le; 0.5<br/>entropy = 0.873<br/>samples = 348<br/>value = [102, 246]>, fillcolor="#8bc6f0"] ;
1 -> 31 ;
32 [label=<X<SUB>57</SUB> &le; 0.5<br/>entropy = 0.754<br/>samples = 300<br/>value = [65, 235]>, fillcolor="#70b8ec"] ;
31 -> 32 ;
33 [label=<X<SUB>41</SUB> &le; 0.5<br/>entropy = 0.695<br/>samples = 289<br/>value = [54, 235]>, fillcolor="#66b4eb"] ;
32 -> 33 ;
34 [label=<X<SUB>69</SUB> &le; 0.5<br/>entropy = 0.657<br/>samples = 283<br/>value = [48, 235]>, fillcolor="#61b1ea"] ;
33 -> 34 ;
35 [label=<X<SUB>13</SUB> &le; 0.5<br/>entropy = 0.629<br/>samples = 279<br/>value = [44, 235]>, fillcolor="#5eafea"] ;
34 -> 35 ;
36 [label=<entropy = 0.747<br/>samples = 183<br/>value = [39, 144]>, fillcolor="#6fb8ec"] ;
35 -> 36 ;
37 [label=<entropy = 0.295<br/>samples = 96<br/>value = [5, 91]>, fillcolor="#44a2e6"] ;
35 -> 37 ;
38 [label=<entropy = 0.0<br/>samples = 4<br/>value = [4, 0]>, fillcolor="#e58139"] ;
34 -> 38 ;
39 [label=<entropy = 0.0<br/>samples = 6<br/>value = [6, 0]>, fillcolor="#e58139"] ;
33 -> 39 ;
40 [label=<entropy = 0.0<br/>samples = 11<br/>value = [11, 0]>, fillcolor="#e58139"] ;
32 -> 40 ;
41 [label=<X<SUB>9</SUB> &le; 0.5<br/>entropy = 0.777<br/>samples = 48<br/>value = [37, 11]>, fillcolor="#eda674"] ;
31 -> 41 ;
42 [label=<entropy = 0.31<br/>samples = 36<br/>value = [34, 2]>, fillcolor="#e78845"] ;
41 -> 42 ;
43 [label=<X<SUB>52</SUB> &le; 0.5<br/>entropy = 0.811<br/>samples = 12<br/>value = [3, 9]>, fillcolor="#7bbeee"] ;
41 -> 43 ;
44 [label=<entropy = 0.0<br/>samples = 9<br/>value = [0, 9]>, fillcolor="#399de5"] ;
43 -> 44 ;
45 [label=<entropy = 0.0<br/>samples = 3<br/>value = [3, 0]>, fillcolor="#e58139"] ;
43 -> 45 ;
46 [label=<X<SUB>2</SUB> &le; 0.5<br/>entropy = 0.789<br/>samples = 1219<br/>value = [288, 931]>, fillcolor="#76bbed"] ;
0 -> 46 [labeldistance=2.5, labelangle=-45, headlabel="False"] ;
47 [label=<X<SUB>7</SUB> &le; 0.5<br/>entropy = 0.669<br/>samples = 1068<br/>value = [187, 881]>, fillcolor="#63b2eb"] ;
46 -> 47 ;
48 [label=<X<SUB>34</SUB> &le; 0.5<br/>entropy = 0.629<br/>samples = 1045<br/>value = [165, 880]>, fillcolor="#5eafea"] ;
47 -> 48 ;
49 [label=<X<SUB>23</SUB> &le; 0.5<br/>entropy = 0.568<br/>samples = 978<br/>value = [131, 847]>, fillcolor="#58ace9"] ;
48 -> 49 ;
50 [label=<X<SUB>75</SUB> &le; 0.5<br/>entropy = 0.654<br/>samples = 736<br/>value = [124, 612]>, fillcolor="#61b1ea"] ;
49 -> 50 ;
51 [label=<X<SUB>5</SUB> &le; 0.5<br/>entropy = 0.988<br/>samples = 110<br/>value = [48, 62]>, fillcolor="#d2e9f9"] ;
50 -> 51 ;
52 [label=<X<SUB>31</SUB> &le; 0.5<br/>entropy = 0.962<br/>samples = 101<br/>value = [39, 62]>, fillcolor="#b6dbf5"] ;
51 -> 52 ;
53 [label=<X<SUB>73</SUB> &le; 0.5<br/>entropy = 1.0<br/>samples = 75<br/>value = [37, 38]>, fillcolor="#fafcfe"] ;
52 -> 53 ;
54 [label=<X<SUB>43</SUB> &le; 0.5<br/>entropy = 0.967<br/>samples = 61<br/>value = [24, 37]>, fillcolor="#b9ddf6"] ;
53 -> 54 ;
55 [label=<entropy = 1.0<br/>samples = 48<br/>value = [24, 24]>, fillcolor="#ffffff"] ;
54 -> 55 ;
56 [label=<entropy = 0.0<br/>samples = 13<br/>value = [0, 13]>, fillcolor="#399de5"] ;
54 -> 56 ;
57 [label=<entropy = 0.371<br/>samples = 14<br/>value = [13, 1]>, fillcolor="#e78b48"] ;
53 -> 57 ;
58 [label=<entropy = 0.391<br/>samples = 26<br/>value = [2, 24]>, fillcolor="#49a5e7"] ;
52 -> 58 ;
59 [label=<entropy = 0.0<br/>samples = 9<br/>value = [9, 0]>, fillcolor="#e58139"] ;
51 -> 59 ;
60 [label=<X<SUB>60</SUB> &le; 0.5<br/>entropy = 0.533<br/>samples = 626<br/>value = [76, 550]>, fillcolor="#54abe9"] ;
50 -> 60 ;
61 [label=<X<SUB>46</SUB> &le; 0.5<br/>entropy = 0.509<br/>samples = 620<br/>value = [70, 550]>, fillcolor="#52a9e8"] ;
60 -> 61 ;
62 [label=<X<SUB>71</SUB> &le; 0.5<br/>entropy = 0.639<br/>samples = 315<br/>value = [51, 264]>, fillcolor="#5fb0ea"] ;
61 -> 62 ;
63 [label=<entropy = 0.589<br/>samples = 303<br/>value = [43, 260]>, fillcolor="#5aade9"] ;
62 -> 63 ;
64 [label=<X<SUB>11</SUB> &le; 0.5<br/>entropy = 0.918<br/>samples = 12<br/>value = [8, 4]>, fillcolor="#f2c09c"] ;
62 -> 64 ;
65 [label=<entropy = 0.0<br/>samples = 8<br/>value = [8, 0]>, fillcolor="#e58139"] ;
64 -> 65 ;
66 [label=<entropy = 0.0<br/>samples = 4<br/>value = [0, 4]>, fillcolor="#399de5"] ;
64 -> 66 ;
67 [label=<entropy = 0.336<br/>samples = 305<br/>value = [19, 286]>, fillcolor="#46a4e7"] ;
61 -> 67 ;
68 [label=<entropy = 0.0<br/>samples = 6<br/>value = [6, 0]>, fillcolor="#e58139"] ;
60 -> 68 ;
69 [label=<entropy = 0.189<br/>samples = 242<br/>value = [7, 235]>, fillcolor="#3fa0e6"] ;
49 -> 69 ;
70 [label=<entropy = 1.0<br/>samples = 67<br/>value = [34, 33]>, fillcolor="#fefbf9"] ;
48 -> 70 ;
71 [label=<entropy = 0.258<br/>samples = 23<br/>value = [22, 1]>, fillcolor="#e68742"] ;
47 -> 71 ;
72 [label=<X<SUB>15</SUB> &le; 0.5<br/>entropy = 0.916<br/>samples = 151<br/>value = [101, 50]>, fillcolor="#f2bf9b"] ;
46 -> 72 ;
73 [label=<X<SUB>28</SUB> &le; 0.5<br/>entropy = 0.772<br/>samples = 128<br/>value = [99, 29]>, fillcolor="#eda673"] ;
72 -> 73 ;
74 [label=<entropy = 0.131<br/>samples = 55<br/>value = [54, 1]>, fillcolor="#e5833d"] ;
73 -> 74 ;
75 [label=<X<SUB>30</SUB> &le; 0.5<br/>entropy = 0.961<br/>samples = 73<br/>value = [45, 28]>, fillcolor="#f5cfb4"] ;
73 -> 75 ;
76 [label=<X<SUB>64</SUB> &le; 0.5<br/>entropy = 0.843<br/>samples = 59<br/>value = [43, 16]>, fillcolor="#efb083"] ;
75 -> 76 ;
77 [label=<entropy = 0.665<br/>samples = 52<br/>value = [43, 9]>, fillcolor="#ea9b62"] ;
76 -> 77 ;
78 [label=<entropy = 0.0<br/>samples = 7<br/>value = [0, 7]>, fillcolor="#399de5"] ;
76 -> 78 ;
79 [label=<entropy = 0.592<br/>samples = 14<br/>value = [2, 12]>, fillcolor="#5aade9"] ;
75 -> 79 ;
80 [label=<entropy = 0.426<br/>samples = 23<br/>value = [2, 21]>, fillcolor="#4ca6e7"] ;
72 -> 80 ;
}