digraph Tree {
node [shape=box, style="filled, rounded", color="black", fontname=helvetica] ;
edge [fontname=helvetica] ;
0 [label=<time &le; -0.809<br/>gini = 0.5<br/>samples = 293<br/>value = [146, 147]>, fillcolor="#fefeff"] ;
1 [label=<gini = 0.108<br/>samples = 105<br/>value = [6, 99]>, fillcolor="#45a3e7"] ;
0 -> 1 [labeldistance=2.5, labelangle=45, headlabel="True"] ;
2 [label=<diff(ejection_fraction,age) &le; -0.668<br/>gini = 0.38<br/>samples = 188<br/>value = [140, 48]>, fillcolor="#eeac7d"] ;
0 -> 2 [labeldistance=2.5, labelangle=-45, headlabel="False"] ;
3 [label=<diff(time,serum_creatinine) &le; 0.687<br/>gini = 0.488<br/>samples = 64<br/>value = [27, 37]>, fillcolor="#c9e5f8"] ;
2 -> 3 ;
4 [label=<gini = 0.398<br/>samples = 51<br/>value = [14, 37]>, fillcolor="#84c2ef"] ;
3 -> 4 ;
5 [label=<gini = 0.0<br/>samples = 13<br/>value = [13, 0]>, fillcolor="#e58139"] ;
3 -> 5 ;
6 [label=<gini = 0.162<br/>samples = 124<br/>value = [113, 11]>, fillcolor="#e88d4c"] ;
2 -> 6 ;
}