digraph Tree {
node [shape=box, style="filled, rounded", color="black", fontname=helvetica] ;
edge [fontname=helvetica] ;
0 [label=<X<SUB>282</SUB> &le; 0.5<br/>gini = 0.151<br/>samples = 6293<br/>value = [5774, 519]>, fillcolor="#e78c4b"] ;
1 [label=<X<SUB>439</SUB> &le; 0.5<br/>gini = 0.094<br/>samples = 5232<br/>value = [4974, 258]>, fillcolor="#e68843"] ;
0 -> 1 [labeldistance=2.5, labelangle=45, headlabel="True"] ;
2 [label=<X<SUB>765</SUB> &le; 0.5<br/>gini = 0.084<br/>samples = 5066<br/>value = [4844, 222]>, fillcolor="#e68742"] ;
1 -> 2 ;
3 [label=<X<SUB>780</SUB> &le; 0.5<br/>gini = 0.075<br/>samples = 4898<br/>value = [4708, 190]>, fillcolor="#e68641"] ;
2 -> 3 ;
4 [label=<X<SUB>917</SUB> &le; 0.5<br/>gini = 0.067<br/>samples = 4760<br/>value = [4594, 166]>, fillcolor="#e68640"] ;
3 -> 4 ;
5 [label=<X<SUB>813</SUB> &le; 0.5<br/>gini = 0.061<br/>samples = 4467<br/>value = [4326, 141]>, fillcolor="#e6853f"] ;
4 -> 5 ;
6 [label=<X<SUB>567</SUB> &le; 0.5<br/>gini = 0.091<br/>samples = 1647<br/>value = [1568, 79]>, fillcolor="#e68743"] ;
5 -> 6 ;
7 [label=<X<SUB>794</SUB> &le; 0.5<br/>gini = 0.084<br/>samples = 1614<br/>value = [1543, 71]>, fillcolor="#e68742"] ;
6 -> 7 ;
8 [label=<X<SUB>973</SUB> &le; 0.5<br/>gini = 0.072<br/>samples = 1514<br/>value = [1457, 57]>, fillcolor="#e68641"] ;
7 -> 8 ;
9 [label=<X<SUB>408</SUB> &le; 0.5<br/>gini = 0.068<br/>samples = 1498<br/>value = [1445, 53]>, fillcolor="#e68640"] ;
8 -> 9 ;
10 [label=<X<SUB>53</SUB> &le; 0.5<br/>gini = 0.112<br/>samples = 553<br/>value = [520, 33]>, fillcolor="#e78946"] ;
9 -> 10 ;
11 [label=<X<SUB>1005</SUB> &le; 0.5<br/>gini = 0.106<br/>samples = 550<br/>value = [519, 31]>, fillcolor="#e78945"] ;
10 -> 11 ;
12 [label=<X<SUB>1017</SUB> &le; 0.5<br/>gini = 0.1<br/>samples = 547<br/>value = [518, 29]>, fillcolor="#e68844"] ;
11 -> 12 ;
13 [label=<X<SUB>115</SUB> &le; 0.5<br/>gini = 0.069<br/>samples = 478<br/>value = [461, 17]>, fillcolor="#e68640"] ;
12 -> 13 ;
14 [label=<X<SUB>367</SUB> &le; 0.5<br/>gini = 0.061<br/>samples = 475<br/>value = [460, 15]>, fillcolor="#e6853f"] ;
13 -> 14 ;
15 [label=<X<SUB>822</SUB> &le; 0.5<br/>gini = 0.057<br/>samples = 474<br/>value = [460, 14]>, fillcolor="#e6853f"] ;
14 -> 15 ;
16 [label=<X<SUB>757</SUB> &le; 0.5<br/>gini = 0.054<br/>samples = 472<br/>value = [459, 13]>, fillcolor="#e6853f"] ;
15 -> 16 ;
17 [label=<X<SUB>778</SUB> &le; 0.5<br/>gini = 0.043<br/>samples = 454<br/>value = [444, 10]>, fillcolor="#e6843d"] ;
16 -> 17 ;
18 [label=<X<SUB>946</SUB> &le; 0.5<br/>gini = 0.039<br/>samples = 451<br/>value = [442, 9]>, fillcolor="#e6843d"] ;
17 -> 18 ;
19 [label=<X<SUB>126</SUB> &le; 0.5<br/>gini = 0.035<br/>samples = 448<br/>value = [440, 8]>, fillcolor="#e5833d"] ;
18 -> 19 ;
20 [label=<X<SUB>217</SUB> &le; 0.5<br/>gini = 0.031<br/>samples = 445<br/>value = [438, 7]>, fillcolor="#e5833c"] ;
19 -> 20 ;
21 [label=<X<SUB>1015</SUB> &le; 0.5<br/>gini = 0.027<br/>samples = 441<br/>value = [435, 6]>, fillcolor="#e5833c"] ;
20 -> 21 ;
22 [label=<X<SUB>710</SUB> &le; 0.5<br/>gini = 0.019<br/>samples = 425<br/>value = [421, 4]>, fillcolor="#e5823b"] ;
21 -> 22 ;
23 [label=<X<SUB>208</SUB> &le; 0.5<br/>gini = 0.014<br/>samples = 420<br/>value = [417, 3]>, fillcolor="#e5823a"] ;
22 -> 23 ;
24 [label=<X<SUB>138</SUB> &le; 0.5<br/>gini = 0.01<br/>samples = 413<br/>value = [411, 2]>, fillcolor="#e5823a"] ;
23 -> 24 ;
25 [label=<gini = 0.005<br/>samples = 404<br/>value = [403, 1]>, fillcolor="#e58139"] ;
24 -> 25 ;
26 [label=<gini = 0.198<br/>samples = 9<br/>value = [8, 1]>, fillcolor="#e89152"] ;
24 -> 26 ;
27 [label=<X<SUB>587</SUB> &le; 0.5<br/>gini = 0.245<br/>samples = 7<br/>value = [6, 1]>, fillcolor="#e9965a"] ;
23 -> 27 ;
28 [label=<gini = 0.0<br/>samples = 5<br/>value = [5, 0]>, fillcolor="#e58139"] ;
27 -> 28 ;
29 [label=<gini = 0.5<br/>samples = 2<br/>value = [1, 1]>, fillcolor="#ffffff"] ;
27 -> 29 ;
30 [label=<X<SUB>736</SUB> &le; 0.5<br/>gini = 0.32<br/>samples = 5<br/>value = [4, 1]>, fillcolor="#eca06a"] ;
22 -> 30 ;
31 [label=<gini = 0.0<br/>samples = 4<br/>value = [4, 0]>, fillcolor="#e58139"] ;
30 -> 31 ;
32 [label=<gini = 0.0<br/>samples = 1<br/>value = [0, 1]>, fillcolor="#399de5"] ;
30 -> 32 ;
33 [label=<X<SUB>703</SUB> &le; 0.5<br/>gini = 0.219<br/>samples = 16<br/>value = [14, 2]>, fillcolor="#e99355"] ;
21 -> 33 ;
34 [label=<X<SUB>176</SUB> &le; 0.5<br/>gini = 0.124<br/>samples = 15<br/>value = [14, 1]>, fillcolor="#e78a47"] ;
33 -> 34 ;
35 [label=<gini = 0.0<br/>samples = 14<br/>value = [14, 0]>, fillcolor="#e58139"] ;
34 -> 35 ;
36 [label=<gini = 0.0<br/>samples = 1<br/>value = [0, 1]>, fillcolor="#399de5"] ;
34 -> 36 ;
37 [label=<gini = 0.0<br/>samples = 1<br/>value = [0, 1]>, fillcolor="#399de5"] ;
33 -> 37 ;
38 [label=<X<SUB>229</SUB> &le; 0.5<br/>gini = 0.375<br/>samples = 4<br/>value = [3, 1]>, fillcolor="#eeab7b"] ;
20 -> 38 ;
39 [label=<gini = 0.0<br/>samples = 3<br/>value = [3, 0]>, fillcolor="#e58139"] ;
38 -> 39 ;
40 [label=<gini = 0.0<br/>samples = 1<br/>value = [0, 1]>, fillcolor="#399de5"] ;
38 -> 40 ;
41 [label=<X<SUB>758</SUB> &le; 0.5<br/>gini = 0.444<br/>samples = 3<br/>value = [2, 1]>, fillcolor="#f2c09c"] ;
19 -> 41 ;
42 [label=<gini = 0.0<br/>samples = 1<br/>value = [0, 1]>, fillcolor="#399de5"] ;
41 -> 42 ;
43 [label=<gini = 0.0<br/>samples = 2<br/>value = [2, 0]>, fillcolor="#e58139"] ;
41 -> 43 ;
44 [label=<X<SUB>73</SUB> &le; 0.5<br/>gini = 0.444<br/>samples = 3<br/>value = [2, 1]>, fillcolor="#f2c09c"] ;
18 -> 44 ;
45 [label=<gini = 0.0<br/>samples = 2<br/>value = [2, 0]>, fillcolor="#e58139"] ;
44 -> 45 ;
46 [label=<gini = 0.0<br/>samples = 1<br/>value = [0, 1]>, fillcolor="#399de5"] ;
44 -> 46 ;
47 [label=<X<SUB>473</SUB> &le; 0.5<br/>gini = 0.444<br/>samples = 3<br/>value = [2, 1]>, fillcolor="#f2c09c"] ;
17 -> 47 ;
48 [label=<gini = 0.0<br/>samples = 2<br/>value = [2, 0]>, fillcolor="#e58139"] ;
47 -> 48 ;
49 [label=<gini = 0.0<br/>samples = 1<br/>value = [0, 1]>, fillcolor="#399de5"] ;
47 -> 49 ;
50 [label=<X<SUB>977</SUB> &le; 0.5<br/>gini = 0.278<br/>samples = 18<br/>value = [15, 3]>, fillcolor="#ea9a61"] ;
16 -> 50 ;
51 [label=<X<SUB>1018</SUB> &le; 0.5<br/>gini = 0.117<br/>samples = 16<br/>value = [15, 1]>, fillcolor="#e78946"] ;
50 -> 51 ;
52 [label=<gini = 0.0<br/>samples = 15<br/>value = [15, 0]>, fillcolor="#e58139"] ;
51 -> 52 ;
53 [label=<gini = 0.0<br/>samples = 1<br/>value = [0, 1]>, fillcolor="#399de5"] ;
51 -> 53 ;
54 [label=<gini = 0.0<br/>samples = 2<br/>value = [0, 2]>, fillcolor="#399de5"] ;
50 -> 54 ;
55 [label=<X<SUB>306</SUB> &le; 0.5<br/>gini = 0.5<br/>samples = 2<br/>value = [1, 1]>, fillcolor="#ffffff"] ;
15 -> 55 ;
56 [label=<gini = 0.0<br/>samples = 1<br/>value = [0, 1]>, fillcolor="#399de5"] ;
55 -> 56 ;
57 [label=<gini = 0.0<br/>samples = 1<br/>value = [1, 0]>, fillcolor="#e58139"] ;
55 -> 57 ;
58 [label=<gini = 0.0<br/>samples = 1<br/>value = [0, 1]>, fillcolor="#399de5"] ;
14 -> 58 ;
59 [label=<X<SUB>105</SUB> &le; 0.5<br/>gini = 0.444<br/>samples = 3<br/>value = [1, 2]>, fillcolor="#9ccef2"] ;
13 -> 59 ;
60 [label=<gini = 0.0<br/>samples = 2<br/>value = [0, 2]>, fillcolor="#399de5"] ;
59 -> 60 ;
61 [label=<gini = 0.0<br/>samples = 1<br/>value = [1, 0]>, fillcolor="#e58139"] ;
59 -> 61 ;
62 [label=<X<SUB>488</SUB> &le; 0.5<br/>gini = 0.287<br/>samples = 69<br/>value = [57, 12]>, fillcolor="#ea9c63"] ;
12 -> 62 ;
63 [label=<X<SUB>89</SUB> &le; 0.5<br/>gini = 0.242<br/>samples = 64<br/>value = [55, 9]>, fillcolor="#e99659"] ;
62 -> 63 ;
64 [label=<X<SUB>786</SUB> &le; 0.5<br/>gini = 0.142<br/>samples = 52<br/>value = [48, 4]>, fillcolor="#e78c49"] ;
63 -> 64 ;
65 [label=<X<SUB>154</SUB> &le; 0.5<br/>gini = 0.078<br/>samples = 49<br/>value = [47, 2]>, fillcolor="#e68641"] ;
64 -> 65 ;
66 [label=<X<SUB>921</SUB> &le; 0.5<br/>gini = 0.041<br/>samples = 48<br/>value = [47, 1]>, fillcolor="#e6843d"] ;
65 -> 66 ;
67 [label=<gini = 0.0<br/>samples = 45<br/>value = [45, 0]>, fillcolor="#e58139"] ;
66 -> 67 ;
68 [label=<X<SUB>994</SUB> &le; 0.5<br/>gini = 0.444<br/>samples = 3<br/>value = [2, 1]>, fillcolor="#f2c09c"] ;
66 -> 68 ;
69 [label=<gini = 0.0<br/>samples = 1<br/>value = [0, 1]>, fillcolor="#399de5"] ;
68 -> 69 ;
70 [label=<gini = 0.0<br/>samples = 2<br/>value = [2, 0]>, fillcolor="#e58139"] ;
68 -> 70 ;
71 [label=<gini = 0.0<br/>samples = 1<br/>value = [0, 1]>, fillcolor="#399de5"] ;
65 -> 71 ;
72 [label=<X<SUB>337</SUB> &le; 0.5<br/>gini = 0.444<br/>samples = 3<br/>value = [1, 2]>, fillcolor="#9ccef2"] ;
64 -> 72 ;
73 [label=<gini = 0.0<br/>samples = 2<br/>value = [0, 2]>, fillcolor="#399de5"] ;
72 -> 73 ;
74 [label=<gini = 0.0<br/>samples = 1<br/>value = [1, 0]>, fillcolor="#e58139"] ;
72 -> 74 ;
75 [label=<X<SUB>524</SUB> &le; 0.5<br/>gini = 0.486<br/>samples = 12<br/>value = [7, 5]>, fillcolor="#f8dbc6"] ;
63 -> 75 ;
76 [label=<X<SUB>629</SUB> &le; 0.5<br/>gini = 0.408<br/>samples = 7<br/>value = [2, 5]>, fillcolor="#88c4ef"] ;
75 -> 76 ;
77 [label=<X<SUB>359</SUB> &le; 0.5<br/>gini = 0.278<br/>samples = 6<br/>value = [1, 5]>, fillcolor="#61b1ea"] ;
76 -> 77 ;
78 [label=<gini = 0.0<br/>samples = 5<br/>value = [0, 5]>, fillcolor="#399de5"] ;
77 -> 78 ;
79 [label=<gini = 0.0<br/>samples = 1<br/>value = [1, 0]>, fillcolor="#e58139"] ;
77 -> 79 ;
80 [label=<gini = 0.0<br/>samples = 1<br/>value = [1, 0]>, fillcolor="#e58139"] ;
76 -> 80 ;
81 [label=<gini = 0.0<br/>samples = 5<br/>value = [5, 0]>, fillcolor="#e58139"] ;
75 -> 81 ;
82 [label=<X<SUB>296</SUB> &le; 0.5<br/>gini = 0.48<br/>samples = 5<br/>value = [2, 3]>, fillcolor="#bddef6"] ;
62 -> 82 ;
83 [label=<gini = 0.0<br/>samples = 1<br/>value = [1, 0]>, fillcolor="#e58139"] ;
82 -> 83 ;
84 [label=<X<SUB>13</SUB> &le; 0.5<br/>gini = 0.375<br/>samples = 4<br/>value = [1, 3]>, fillcolor="#7bbeee"] ;
82 -> 84 ;
85 [label=<gini = 0.444<br/>samples = 3<br/>value = [1, 2]>, fillcolor="#9ccef2"] ;
84 -> 85 ;
86 [label=<gini = 0.0<br/>samples = 1<br/>value = [0, 1]>, fillcolor="#399de5"] ;
84 -> 86 ;
87 [label=<X<SUB>630</SUB> &le; 0.5<br/>gini = 0.444<br/>samples = 3<br/>value = [1, 2]>, fillcolor="#9ccef2"] ;
11 -> 87 ;
88 [label=<gini = 0.0<br/>samples = 2<br/>value = [0, 2]>, fillcolor="#399de5"] ;
87 -> 88 ;
89 [label=<gini = 0.0<br/>samples = 1<br/>value = [1, 0]>, fillcolor="#e58139"] ;
87 -> 89 ;
90 [label=<X<SUB>571</SUB> &le; 0.5<br/>gini = 0.444<br/>samples = 3<br/>value = [1, 2]>, fillcolor="#9ccef2"] ;
10 -> 90 ;
91 [label=<gini = 0.0<br/>samples = 2<br/>value = [0, 2]>, fillcolor="#399de5"] ;
90 -> 91 ;
92 [label=<gini = 0.0<br/>samples = 1<br/>value = [1, 0]>, fillcolor="#e58139"] ;
90 -> 92 ;
93 [label=<X<SUB>108</SUB> &le; 0.5<br/>gini = 0.041<br/>samples = 945<br/>value = [925, 20]>, fillcolor="#e6843d"] ;
9 -> 93 ;
94 [label=<X<SUB>263</SUB> &le; 0.5<br/>gini = 0.036<br/>samples = 932<br/>value = [915, 17]>, fillcolor="#e5833d"] ;
93 -> 94 ;
95 [label=<X<SUB>777</SUB> &le; 0.5<br/>gini = 0.032<br/>samples = 922<br/>value = [907, 15]>, fillcolor="#e5833c"] ;
94 -> 95 ;
96 [label=<X<SUB>564</SUB> &le; 0.5<br/>gini = 0.028<br/>samples = 911<br/>value = [898, 13]>, fillcolor="#e5833c"] ;
95 -> 96 ;
97 [label=<X<SUB>658</SUB> &le; 0.5<br/>gini = 0.026<br/>samples = 908<br/>value = [896, 12]>, fillcolor="#e5833c"] ;
96 -> 97 ;
98 [label=<X<SUB>687</SUB> &le; 0.5<br/>gini = 0.02<br/>samples = 877<br/>value = [868, 9]>, fillcolor="#e5823b"] ;
97 -> 98 ;
99 [label=<X<SUB>231</SUB> &le; 0.5<br/>gini = 0.018<br/>samples = 873<br/>value = [865, 8]>, fillcolor="#e5823b"] ;
98 -> 99 ;
100 [label=<X<SUB>951</SUB> &le; 0.5<br/>gini = 0.016<br/>samples = 868<br/>value = [861, 7]>, fillcolor="#e5823b"] ;
99 -> 100 ;
101 [label=<X<SUB>824</SUB> &le; 0.5<br/>gini = 0.012<br/>samples = 849<br/>value = [844, 5]>, fillcolor="#e5823a"] ;
100 -> 101 ;
102 [label=<X<SUB>106</SUB> &le; 0.5<br/>gini = 0.009<br/>samples = 842<br/>value = [838, 4]>, fillcolor="#e5823a"] ;
101 -> 102 ;
103 [label=<X<SUB>224</SUB> &le; 0.5<br/>gini = 0.007<br/>samples = 835<br/>value = [832, 3]>, fillcolor="#e5813a"] ;
102 -> 103 ;
104 [label=<X<SUB>949</SUB> &le; 0.5<br/>gini = 0.005<br/>samples = 829<br/>value = [827, 2]>, fillcolor="#e58139"] ;
103 -> 104 ;
105 [label=<X<SUB>273</SUB> &le; 0.5<br/>gini = 0.002<br/>samples = 816<br/>value = [815, 1]>, fillcolor="#e58139"] ;
104 -> 105 ;
106 [label=<gini = 0.0<br/>samples = 803<br/>value = [803, 0]>, fillcolor="#e58139"] ;
105 -> 106 ;
107 [label=<X<SUB>594</SUB> &le; 0.5<br/>gini = 0.142<br/>samples = 13<br/>value = [12, 1]>, fillcolor="#e78c49"] ;
105 -> 107 ;
108 [label=<gini = 0.0<br/>samples = 12<br/>value = [12, 0]>, fillcolor="#e58139"] ;
107 -> 108 ;
109 [label=<gini = 0.0<br/>samples = 1<br/>value = [0, 1]>, fillcolor="#399de5"] ;
107 -> 109 ;
110 [label=<X<SUB>995</SUB> &le; 0.5<br/>gini = 0.142<br/>samples = 13<br/>value = [12, 1]>, fillcolor="#e78c49"] ;
104 -> 110 ;
111 [label=<X<SUB>684</SUB> &le; 0.5<br/>gini = 0.444<br/>samples = 3<br/>value = [2, 1]>, fillcolor="#f2c09c"] ;
110 -> 111 ;
112 [label=<gini = 0.0<br/>samples = 1<br/>value = [0, 1]>, fillcolor="#399de5"] ;
111 -> 112 ;
113 [label=<gini = 0.0<br/>samples = 2<br/>value = [2, 0]>, fillcolor="#e58139"] ;
111 -> 113 ;
114 [label=<gini = 0.0<br/>samples = 10<br/>value = [10, 0]>, fillcolor="#e58139"] ;
110 -> 114 ;
115 [label=<X<SUB>920</SUB> &le; 0.5<br/>gini = 0.278<br/>samples = 6<br/>value = [5, 1]>, fillcolor="#ea9a61"] ;
103 -> 115 ;
116 [label=<gini = 0.0<br/>samples = 1<br/>value = [0, 1]>, fillcolor="#399de5"] ;
115 -> 116 ;
117 [label=<gini = 0.0<br/>samples = 5<br/>value = [5, 0]>, fillcolor="#e58139"] ;
115 -> 117 ;
118 [label=<X<SUB>443</SUB> &le; 0.5<br/>gini = 0.245<br/>samples = 7<br/>value = [6, 1]>, fillcolor="#e9965a"] ;
102 -> 118 ;
119 [label=<gini = 0.0<br/>samples = 6<br/>value = [6, 0]>, fillcolor="#e58139"] ;
118 -> 119 ;
120 [label=<gini = 0.0<br/>samples = 1<br/>value = [0, 1]>, fillcolor="#399de5"] ;
118 -> 120 ;
121 [label=<X<SUB>200</SUB> &le; 0.5<br/>gini = 0.245<br/>samples = 7<br/>value = [6, 1]>, fillcolor="#e9965a"] ;
101 -> 121 ;
122 [label=<gini = 0.0<br/>samples = 6<br/>value = [6, 0]>, fillcolor="#e58139"] ;
121 -> 122 ;
123 [label=<gini = 0.0<br/>samples = 1<br/>value = [0, 1]>, fillcolor="#399de5"] ;
121 -> 123 ;
124 [label=<X<SUB>487</SUB> &le; 0.5<br/>gini = 0.188<br/>samples = 19<br/>value = [17, 2]>, fillcolor="#e89050"] ;
100 -> 124 ;
125 [label=<gini = 0.0<br/>samples = 16<br/>value = [16, 0]>, fillcolor="#e58139"] ;
124 -> 125 ;
126 [label=<X<SUB>112</SUB> &le; 0.5<br/>gini = 0.444<br/>samples = 3<br/>value = [1, 2]>, fillcolor="#9ccef2"] ;
124 -> 126 ;
127 [label=<gini = 0.0<br/>samples = 2<br/>value = [0, 2]>, fillcolor="#399de5"] ;
126 -> 127 ;
128 [label=<gini = 0.0<br/>samples = 1<br/>value = [1, 0]>, fillcolor="#e58139"] ;
126 -> 128 ;
129 [label=<X<SUB>1003</SUB> &le; 0.5<br/>gini = 0.32<br/>samples = 5<br/>value = [4, 1]>, fillcolor="#eca06a"] ;
99 -> 129 ;
130 [label=<gini = 0.0<br/>samples = 4<br/>value = [4, 0]>, fillcolor="#e58139"] ;
129 -> 130 ;
131 [label=<gini = 0.0<br/>samples = 1<br/>value = [0, 1]>, fillcolor="#399de5"] ;
129 -> 131 ;
132 [label=<X<SUB>905</SUB> &le; 0.5<br/>gini = 0.375<br/>samples = 4<br/>value = [3, 1]>, fillcolor="#eeab7b"] ;
98 -> 132 ;
133 [label=<gini = 0.0<br/>samples = 1<br/>value = [0, 1]>, fillcolor="#399de5"] ;
132 -> 133 ;
134 [label=<gini = 0.0<br/>samples = 3<br/>value = [3, 0]>, fillcolor="#e58139"] ;
132 -> 134 ;
135 [label=<X<SUB>248</SUB> &le; 0.5<br/>gini = 0.175<br/>samples = 31<br/>value = [28, 3]>, fillcolor="#e88e4e"] ;
97 -> 135 ;
136 [label=<X<SUB>860</SUB> &le; 0.5<br/>gini = 0.124<br/>samples = 30<br/>value = [28, 2]>, fillcolor="#e78a47"] ;
135 -> 136 ;
137 [label=<X<SUB>359</SUB> &le; 0.5<br/>gini = 0.067<br/>samples = 29<br/>value = [28, 1]>, fillcolor="#e68640"] ;
136 -> 137 ;
138 [label=<gini = 0.0<br/>samples = 24<br/>value = [24, 0]>, fillcolor="#e58139"] ;
137 -> 138 ;
139 [label=<X<SUB>179</SUB> &le; 0.5<br/>gini = 0.32<br/>samples = 5<br/>value = [4, 1]>, fillcolor="#eca06a"] ;
137 -> 139 ;
140 [label=<gini = 0.0<br/>samples = 4<br/>value = [4, 0]>, fillcolor="#e58139"] ;
139 -> 140 ;
141 [label=<gini = 0.0<br/>samples = 1<br/>value = [0, 1]>, fillcolor="#399de5"] ;
139 -> 141 ;
142 [label=<gini = 0.0<br/>samples = 1<br/>value = [0, 1]>, fillcolor="#399de5"] ;
136 -> 142 ;
143 [label=<gini = 0.0<br/>samples = 1<br/>value = [0, 1]>, fillcolor="#399de5"] ;
135 -> 143 ;
144 [label=<X<SUB>288</SUB> &le; 0.5<br/>gini = 0.444<br/>samples = 3<br/>value = [2, 1]>, fillcolor="#f2c09c"] ;
96 -> 144 ;
145 [label=<gini = 0.0<br/>samples = 2<br/>value = [2, 0]>, fillcolor="#e58139"] ;
144 -> 145 ;
146 [label=<gini = 0.0<br/>samples = 1<br/>value = [0, 1]>, fillcolor="#399de5"] ;
144 -> 146 ;
147 [label=<X<SUB>328</SUB> &le; 0.5<br/>gini = 0.298<br/>samples = 11<br/>value = [9, 2]>, fillcolor="#eb9d65"] ;
95 -> 147 ;
148 [label=<X<SUB>528</SUB> &le; 0.5<br/>gini = 0.18<br/>samples = 10<br/>value = [9, 1]>, fillcolor="#e88f4f"] ;
147 -> 148 ;
149 [label=<gini = 0.0<br/>samples = 9<br/>value = [9, 0]>, fillcolor="#e58139"] ;
148 -> 149 ;
150 [label=<gini = 0.0<br/>samples = 1<br/>value = [0, 1]>, fillcolor="#399de5"] ;
148 -> 150 ;
151 [label=<gini = 0.0<br/>samples = 1<br/>value = [0, 1]>, fillcolor="#399de5"] ;
147 -> 151 ;
152 [label=<X<SUB>832</SUB> &le; 0.5<br/>gini = 0.32<br/>samples = 10<br/>value = [8, 2]>, fillcolor="#eca06a"] ;
94 -> 152 ;
153 [label=<gini = 0.0<br/>samples = 7<br/>value = [7, 0]>, fillcolor="#e58139"] ;
152 -> 153 ;
154 [label=<X<SUB>896</SUB> &le; 0.5<br/>gini = 0.444<br/>samples = 3<br/>value = [1, 2]>, fillcolor="#9ccef2"] ;
152 -> 154 ;
155 [label=<gini = 0.0<br/>samples = 2<br/>value = [0, 2]>, fillcolor="#399de5"] ;
154 -> 155 ;
156 [label=<gini = 0.0<br/>samples = 1<br/>value = [1, 0]>, fillcolor="#e58139"] ;
154 -> 156 ;
157 [label=<X<SUB>667</SUB> &le; 0.5<br/>gini = 0.355<br/>samples = 13<br/>value = [10, 3]>, fillcolor="#eda774"] ;
93 -> 157 ;
158 [label=<X<SUB>735</SUB> &le; 0.5<br/>gini = 0.165<br/>samples = 11<br/>value = [10, 1]>, fillcolor="#e88e4d"] ;
157 -> 158 ;
159 [label=<gini = 0.0<br/>samples = 10<br/>value = [10, 0]>, fillcolor="#e58139"] ;
158 -> 159 ;
160 [label=<gini = 0.0<br/>samples = 1<br/>value = [0, 1]>, fillcolor="#399de5"] ;
158 -> 160 ;
161 [label=<gini = 0.0<br/>samples = 2<br/>value = [0, 2]>, fillcolor="#399de5"] ;
157 -> 161 ;
162 [label=<X<SUB>530</SUB> &le; 0.5<br/>gini = 0.375<br/>samples = 16<br/>value = [12, 4]>, fillcolor="#eeab7b"] ;
8 -> 162 ;
163 [label=<X<SUB>140</SUB> &le; 0.5<br/>gini = 0.153<br/>samples = 12<br/>value = [11, 1]>, fillcolor="#e78c4b"] ;
162 -> 163 ;
164 [label=<gini = 0.0<br/>samples = 11<br/>value = [11, 0]>, fillcolor="#e58139"] ;
163 -> 164 ;
165 [label=<gini = 0.0<br/>samples = 1<br/>value = [0, 1]>, fillcolor="#399de5"] ;
163 -> 165 ;
166 [label=<gini = 0.375<br/>samples = 4<br/>value = [1, 3]>, fillcolor="#7bbeee"] ;
162 -> 166 ;
167 [label=<X<SUB>862</SUB> &le; 0.5<br/>gini = 0.241<br/>samples = 100<br/>value = [86, 14]>, fillcolor="#e99659"] ;
7 -> 167 ;
168 [label=<X<SUB>1006</SUB> &le; 0.5<br/>gini = 0.215<br/>samples = 98<br/>value = [86, 12]>, fillcolor="#e99355"] ;
167 -> 168 ;
169 [label=<X<SUB>738</SUB> &le; 0.5<br/>gini = 0.188<br/>samples = 95<br/>value = [85, 10]>, fillcolor="#e89050"] ;
168 -> 169 ;
170 [label=<X<SUB>736</SUB> &le; 0.5<br/>gini = 0.159<br/>samples = 92<br/>value = [84, 8]>, fillcolor="#e78d4c"] ;
169 -> 170 ;
171 [label=<X<SUB>142</SUB> &le; 0.5<br/>gini = 0.142<br/>samples = 91<br/>value = [84, 7]>, fillcolor="#e78c49"] ;
170 -> 171 ;
172 [label=<X<SUB>290</SUB> &le; 0.5<br/>gini = 0.124<br/>samples = 90<br/>value = [84, 6]>, fillcolor="#e78a47"] ;
171 -> 172 ;
173 [label=<X<SUB>746</SUB> &le; 0.5<br/>gini = 0.106<br/>samples = 89<br/>value = [84, 5]>, fillcolor="#e78845"] ;
172 -> 173 ;
174 [label=<X<SUB>96</SUB> &le; 0.5<br/>gini = 0.087<br/>samples = 88<br/>value = [84, 4]>, fillcolor="#e68742"] ;
173 -> 174 ;
175 [label=<X<SUB>433</SUB> &le; 0.5<br/>gini = 0.067<br/>samples = 86<br/>value = [83, 3]>, fillcolor="#e68640"] ;
174 -> 175 ;
176 [label=<X<SUB>162</SUB> &le; 0.5<br/>gini = 0.048<br/>samples = 82<br/>value = [80, 2]>, fillcolor="#e6843e"] ;
175 -> 176 ;
177 [label=<X<SUB>995</SUB> &le; 0.5<br/>gini = 0.027<br/>samples = 73<br/>value = [72, 1]>, fillcolor="#e5833c"] ;
176 -> 177 ;
178 [label=<X<SUB>905</SUB> &le; 0.5<br/>gini = 0.091<br/>samples = 21<br/>value = [20, 1]>, fillcolor="#e68743"] ;
177 -> 178 ;
179 [label=<X<SUB>148</SUB> &le; 0.5<br/>gini = 0.219<br/>samples = 8<br/>value = [7, 1]>, fillcolor="#e99355"] ;
178 -> 179 ;
180 [label=<X<SUB>408</SUB> &le; 0.5<br/>gini = 0.32<br/>samples = 5<br/>value = [4, 1]>, fillcolor="#eca06a"] ;
179 -> 180 ;
181 [label=<X<SUB>734</SUB> &le; 0.5<br/>gini = 0.444<br/>samples = 3<br/>value = [2, 1]>, fillcolor="#f2c09c"] ;
180 -> 181 ;
182 [label=<gini = 0.5<br/>samples = 2<br/>value = [1, 1]>, fillcolor="#ffffff"] ;
181 -> 182 ;
183 [label=<gini = 0.0<br/>samples = 1<br/>value = [1, 0]>, fillcolor="#e58139"] ;
181 -> 183 ;
184 [label=<gini = 0.0<br/>samples = 2<br/>value = [2, 0]>, fillcolor="#e58139"] ;
180 -> 184 ;
185 [label=<gini = 0.0<br/>samples = 3<br/>value = [3, 0]>, fillcolor="#e58139"] ;
179 -> 185 ;
186 [label=<gini = 0.0<br/>samples = 13<br/>value = [13, 0]>, fillcolor="#e58139"] ;
178 -> 186 ;
187 [label=<gini = 0.0<br/>samples = 52<br/>value = [52, 0]>, fillcolor="#e58139"] ;
177 -> 187 ;
188 [label=<X<SUB>985</SUB> &le; 0.5<br/>gini = 0.198<br/>samples = 9<br/>value = [8, 1]>, fillcolor="#e89152"] ;
176 -> 188 ;
189 [label=<gini = 0.0<br/>samples = 8<br/>value = [8, 0]>, fillcolor="#e58139"] ;
188 -> 189 ;
190 [label=<gini = 0.0<br/>samples = 1<br/>value = [0, 1]>, fillcolor="#399de5"] ;
188 -> 190 ;
191 [label=<X<SUB>976</SUB> &le; 0.5<br/>gini = 0.375<br/>samples = 4<br/>value = [3, 1]>, fillcolor="#eeab7b"] ;
175 -> 191 ;
192 [label=<gini = 0.0<br/>samples = 3<br/>value = [3, 0]>, fillcolor="#e58139"] ;
191 -> 192 ;
193 [label=<gini = 0.0<br/>samples = 1<br/>value = [0, 1]>, fillcolor="#399de5"] ;
191 -> 193 ;
194 [label=<X<SUB>558</SUB> &le; 0.5<br/>gini = 0.5<br/>samples = 2<br/>value = [1, 1]>, fillcolor="#ffffff"] ;
174 -> 194 ;
195 [label=<gini = 0.0<br/>samples = 1<br/>value = [0, 1]>, fillcolor="#399de5"] ;
194 -> 195 ;
196 [label=<gini = 0.0<br/>samples = 1<br/>value = [1, 0]>, fillcolor="#e58139"] ;
194 -> 196 ;
197 [label=<gini = 0.0<br/>samples = 1<br/>value = [0, 1]>, fillcolor="#399de5"] ;
173 -> 197 ;
198 [label=<gini = 0.0<br/>samples = 1<br/>value = [0, 1]>, fillcolor="#399de5"] ;
172 -> 198 ;
199 [label=<gini = 0.0<br/>samples = 1<br/>value = [0, 1]>, fillcolor="#399de5"] ;
171 -> 199 ;
200 [label=<gini = 0.0<br/>samples = 1<br/>value = [0, 1]>, fillcolor="#399de5"] ;
170 -> 200 ;
201 [label=<X<SUB>465</SUB> &le; 0.5<br/>gini = 0.444<br/>samples = 3<br/>value = [1, 2]>, fillcolor="#9ccef2"] ;
169 -> 201 ;
202 [label=<gini = 0.0<br/>samples = 1<br/>value = [1, 0]>, fillcolor="#e58139"] ;
201 -> 202 ;
203 [label=<gini = 0.0<br/>samples = 2<br/>value = [0, 2]>, fillcolor="#399de5"] ;
201 -> 203 ;
204 [label=<X<SUB>565</SUB> &le; 0.5<br/>gini = 0.444<br/>samples = 3<br/>value = [1, 2]>, fillcolor="#9ccef2"] ;
168 -> 204 ;
205 [label=<gini = 0.0<br/>samples = 2<br/>value = [0, 2]>, fillcolor="#399de5"] ;
204 -> 205 ;
206 [label=<gini = 0.0<br/>samples = 1<br/>value = [1, 0]>, fillcolor="#e58139"] ;
204 -> 206 ;
207 [label=<gini = 0.0<br/>samples = 2<br/>value = [0, 2]>, fillcolor="#399de5"] ;
167 -> 207 ;
208 [label=<X<SUB>346</SUB> &le; 0.5<br/>gini = 0.367<br/>samples = 33<br/>value = [25, 8]>, fillcolor="#eda978"] ;
6 -> 208 ;
209 [label=<X<SUB>905</SUB> &le; 0.5<br/>gini = 0.245<br/>samples = 28<br/>value = [24, 4]>, fillcolor="#e9965a"] ;
208 -> 209 ;
210 [label=<X<SUB>959</SUB> &le; 0.5<br/>gini = 0.48<br/>samples = 5<br/>value = [2, 3]>, fillcolor="#bddef6"] ;
209 -> 210 ;
211 [label=<gini = 0.0<br/>samples = 2<br/>value = [0, 2]>, fillcolor="#399de5"] ;
210 -> 211 ;
212 [label=<X<SUB>338</SUB> &le; 0.5<br/>gini = 0.444<br/>samples = 3<br/>value = [2, 1]>, fillcolor="#f2c09c"] ;
210 -> 212 ;
213 [label=<gini = 0.0<br/>samples = 2<br/>value = [2, 0]>, fillcolor="#e58139"] ;
212 -> 213 ;
214 [label=<gini = 0.0<br/>samples = 1<br/>value = [0, 1]>, fillcolor="#399de5"] ;
212 -> 214 ;
215 [label=<X<SUB>104</SUB> &le; 0.5<br/>gini = 0.083<br/>samples = 23<br/>value = [22, 1]>, fillcolor="#e68742"] ;
209 -> 215 ;
216 [label=<gini = 0.0<br/>samples = 21<br/>value = [21, 0]>, fillcolor="#e58139"] ;
215 -> 216 ;
217 [label=<X<SUB>924</SUB> &le; 0.5<br/>gini = 0.5<br/>samples = 2<br/>value = [1, 1]>, fillcolor="#ffffff"] ;
215 -> 217 ;
218 [label=<gini = 0.0<br/>samples = 1<br/>value = [1, 0]>, fillcolor="#e58139"] ;
217 -> 218 ;
219 [label=<gini = 0.0<br/>samples = 1<br/>value = [0, 1]>, fillcolor="#399de5"] ;
217 -> 219 ;
220 [label=<X<SUB>684</SUB> &le; 0.5<br/>gini = 0.32<br/>samples = 5<br/>value = [1, 4]>, fillcolor="#6ab6ec"] ;
208 -> 220 ;
221 [label=<gini = 0.0<br/>samples = 1<br/>value = [1, 0]>, fillcolor="#e58139"] ;
220 -> 221 ;
222 [label=<gini = 0.0<br/>samples = 4<br/>value = [0, 4]>, fillcolor="#399de5"] ;
220 -> 222 ;
223 [label=<X<SUB>252</SUB> &le; 0.5<br/>gini = 0.043<br/>samples = 2820<br/>value = [2758, 62]>, fillcolor="#e6843d"] ;
5 -> 223 ;
224 [label=<X<SUB>596</SUB> &le; 0.5<br/>gini = 0.036<br/>samples = 2693<br/>value = [2643, 50]>, fillcolor="#e5833d"] ;
223 -> 224 ;
225 [label=<X<SUB>71</SUB> &le; 0.5<br/>gini = 0.032<br/>samples = 2612<br/>value = [2569, 43]>, fillcolor="#e5833c"] ;
224 -> 225 ;
226 [label=<X<SUB>688</SUB> &le; 0.5<br/>gini = 0.03<br/>samples = 2578<br/>value = [2539, 39]>, fillcolor="#e5833c"] ;
225 -> 226 ;
227 [label=<X<SUB>72</SUB> &le; 0.5<br/>gini = 0.026<br/>samples = 2499<br/>value = [2466, 33]>, fillcolor="#e5833c"] ;
226 -> 227 ;
228 [label=<X<SUB>764</SUB> &le; 0.5<br/>gini = 0.024<br/>samples = 2466<br/>value = [2436, 30]>, fillcolor="#e5833b"] ;
227 -> 228 ;
229 [label=<X<SUB>1009</SUB> &le; 0.5<br/>gini = 0.021<br/>samples = 2377<br/>value = [2352, 25]>, fillcolor="#e5823b"] ;
228 -> 229 ;
230 [label=<X<SUB>79</SUB> &le; 0.5<br/>gini = 0.019<br/>samples = 2358<br/>value = [2335, 23]>, fillcolor="#e5823b"] ;
229 -> 230 ;
231 [label=<X<SUB>891</SUB> &le; 0.5<br/>gini = 0.017<br/>samples = 2313<br/>value = [2293, 20]>, fillcolor="#e5823b"] ;
230 -> 231 ;
232 [label=<X<SUB>874</SUB> &le; 0.5<br/>gini = 0.015<br/>samples = 2258<br/>value = [2241, 17]>, fillcolor="#e5823b"] ;
231 -> 232 ;
233 [label=<X<SUB>644</SUB> &le; 0.5<br/>gini = 0.013<br/>samples = 2231<br/>value = [2216, 15]>, fillcolor="#e5823a"] ;
232 -> 233 ;
234 [label=<X<SUB>318</SUB> &le; 0.5<br/>gini = 0.012<br/>samples = 2200<br/>value = [2187, 13]>, fillcolor="#e5823a"] ;
233 -> 234 ;
235 [label=<X<SUB>415</SUB> &le; 0.5<br/>gini = 0.011<br/>samples = 2190<br/>value = [2178, 12]>, fillcolor="#e5823a"] ;
234 -> 235 ;
236 [label=<X<SUB>628</SUB> &le; 0.5<br/>gini = 0.009<br/>samples = 2153<br/>value = [2143, 10]>, fillcolor="#e5823a"] ;
235 -> 236 ;
237 [label=<X<SUB>694</SUB> &le; 0.5<br/>gini = 0.008<br/>samples = 2140<br/>value = [2131, 9]>, fillcolor="#e5823a"] ;
236 -> 237 ;
238 [label=<X<SUB>973</SUB> &le; 0.5<br/>gini = 0.008<br/>samples = 2125<br/>value = [2117, 8]>, fillcolor="#e5813a"] ;
237 -> 238 ;
239 [label=<X<SUB>325</SUB> &le; 0.5<br/>gini = 0.007<br/>samples = 2114<br/>value = [2107, 7]>, fillcolor="#e5813a"] ;
238 -> 239 ;
240 [label=<X<SUB>276</SUB> &le; 0.5<br/>gini = 0.005<br/>samples = 2058<br/>value = [2053, 5]>, fillcolor="#e58139"] ;
239 -> 240 ;
241 [label=<gini = 0.004<br/>samples = 2033<br/>value = [2029, 4]>, fillcolor="#e58139"] ;
240 -> 241 ;
242 [label=<X<SUB>264</SUB> &le; 0.5<br/>gini = 0.077<br/>samples = 25<br/>value = [24, 1]>, fillcolor="#e68641"] ;
240 -> 242 ;
243 [label=<gini = 0.0<br/>samples = 24<br/>value = [24, 0]>, fillcolor="#e58139"] ;
242 -> 243 ;
244 [label=<gini = 0.0<br/>samples = 1<br/>value = [0, 1]>, fillcolor="#399de5"] ;
242 -> 244 ;
245 [label=<X<SUB>165</SUB> &le; 0.5<br/>gini = 0.069<br/>samples = 56<br/>value = [54, 2]>, fillcolor="#e68640"] ;
239 -> 245 ;
246 [label=<X<SUB>667</SUB> &le; 0.5<br/>gini = 0.036<br/>samples = 55<br/>value = [54, 1]>, fillcolor="#e5833d"] ;
245 -> 246 ;
247 [label=<gini = 0.0<br/>samples = 54<br/>value = [54, 0]>, fillcolor="#e58139"] ;
246 -> 247 ;
248 [label=<gini = 0.0<br/>samples = 1<br/>value = [0, 1]>, fillcolor="#399de5"] ;
246 -> 248 ;
249 [label=<gini = 0.0<br/>samples = 1<br/>value = [0, 1]>, fillcolor="#399de5"] ;
245 -> 249 ;
250 [label=<X<SUB>497</SUB> &le; 0.5<br/>gini = 0.165<br/>samples = 11<br/>value = [10, 1]>, fillcolor="#e88e4d"] ;
238 -> 250 ;
251 [label=<gini = 0.0<br/>samples = 10<br/>value = [10, 0]>, fillcolor="#e58139"] ;
250 -> 251 ;
252 [label=<gini = 0.0<br/>samples = 1<br/>value = [0, 1]>, fillcolor="#399de5"] ;
250 -> 252 ;
253 [label=<X<SUB>235</SUB> &le; 0.5<br/>gini = 0.124<br/>samples = 15<br/>value = [14, 1]>, fillcolor="#e78a47"] ;
237 -> 253 ;
254 [label=<gini = 0.0<br/>samples = 14<br/>value = [14, 0]>, fillcolor="#e58139"] ;
253 -> 254 ;
255 [label=<gini = 0.0<br/>samples = 1<br/>value = [0, 1]>, fillcolor="#399de5"] ;
253 -> 255 ;
256 [label=<X<SUB>1002</SUB> &le; 0.5<br/>gini = 0.142<br/>samples = 13<br/>value = [12, 1]>, fillcolor="#e78c49"] ;
236 -> 256 ;
257 [label=<gini = 0.0<br/>samples = 12<br/>value = [12, 0]>, fillcolor="#e58139"] ;
256 -> 257 ;
258 [label=<gini = 0.0<br/>samples = 1<br/>value = [0, 1]>, fillcolor="#399de5"] ;
256 -> 258 ;
259 [label=<X<SUB>25</SUB> &le; 0.5<br/>gini = 0.102<br/>samples = 37<br/>value = [35, 2]>, fillcolor="#e68844"] ;
235 -> 259 ;
260 [label=<gini = 0.0<br/>samples = 35<br/>value = [35, 0]>, fillcolor="#e58139"] ;
259 -> 260 ;
261 [label=<gini = 0.0<br/>samples = 2<br/>value = [0, 2]>, fillcolor="#399de5"] ;
259 -> 261 ;
262 [label=<X<SUB>43</SUB> &le; 0.5<br/>gini = 0.18<br/>samples = 10<br/>value = [9, 1]>, fillcolor="#e88f4f"] ;
234 -> 262 ;
263 [label=<gini = 0.0<br/>samples = 9<br/>value = [9, 0]>, fillcolor="#e58139"] ;
262 -> 263 ;
264 [label=<gini = 0.0<br/>samples = 1<br/>value = [0, 1]>, fillcolor="#399de5"] ;
262 -> 264 ;
265 [label=<X<SUB>789</SUB> &le; 0.5<br/>gini = 0.121<br/>samples = 31<br/>value = [29, 2]>, fillcolor="#e78a47"] ;
233 -> 265 ;
266 [label=<X<SUB>577</SUB> &le; 0.5<br/>gini = 0.064<br/>samples = 30<br/>value = [29, 1]>, fillcolor="#e68540"] ;
265 -> 266 ;
267 [label=<gini = 0.0<br/>samples = 29<br/>value = [29, 0]>, fillcolor="#e58139"] ;
266 -> 267 ;
268 [label=<gini = 0.0<br/>samples = 1<br/>value = [0, 1]>, fillcolor="#399de5"] ;
266 -> 268 ;
269 [label=<gini = 0.0<br/>samples = 1<br/>value = [0, 1]>, fillcolor="#399de5"] ;
265 -> 269 ;
270 [label=<X<SUB>355</SUB> &le; 0.5<br/>gini = 0.137<br/>samples = 27<br/>value = [25, 2]>, fillcolor="#e78b49"] ;
232 -> 270 ;
271 [label=<gini = 0.0<br/>samples = 24<br/>value = [24, 0]>, fillcolor="#e58139"] ;
270 -> 271 ;
272 [label=<X<SUB>738</SUB> &le; 0.5<br/>gini = 0.444<br/>samples = 3<br/>value = [1, 2]>, fillcolor="#9ccef2"] ;
270 -> 272 ;
273 [label=<gini = 0.0<br/>samples = 2<br/>value = [0, 2]>, fillcolor="#399de5"] ;
272 -> 273 ;
274 [label=<gini = 0.0<br/>samples = 1<br/>value = [1, 0]>, fillcolor="#e58139"] ;
272 -> 274 ;
275 [label=<X<SUB>66</SUB> &le; 0.5<br/>gini = 0.103<br/>samples = 55<br/>value = [52, 3]>, fillcolor="#e68844"] ;
231 -> 275 ;
276 [label=<X<SUB>92</SUB> &le; 0.5<br/>gini = 0.071<br/>samples = 54<br/>value = [52, 2]>, fillcolor="#e68641"] ;
275 -> 276 ;
277 [label=<X<SUB>882</SUB> &le; 0.5<br/>gini = 0.5<br/>samples = 2<br/>value = [1, 1]>, fillcolor="#ffffff"] ;
276 -> 277 ;
278 [label=<gini = 0.0<br/>samples = 1<br/>value = [0, 1]>, fillcolor="#399de5"] ;
277 -> 278 ;
279 [label=<gini = 0.0<br/>samples = 1<br/>value = [1, 0]>, fillcolor="#e58139"] ;
277 -> 279 ;
280 [label=<X<SUB>419</SUB> &le; 0.5<br/>gini = 0.038<br/>samples = 52<br/>value = [51, 1]>, fillcolor="#e6833d"] ;
276 -> 280 ;
281 [label=<gini = 0.0<br/>samples = 50<br/>value = [50, 0]>, fillcolor="#e58139"] ;
280 -> 281 ;
282 [label=<X<SUB>636</SUB> &le; 0.5<br/>gini = 0.5<br/>samples = 2<br/>value = [1, 1]>, fillcolor="#ffffff"] ;
280 -> 282 ;
283 [label=<gini = 0.0<br/>samples = 1<br/>value = [0, 1]>, fillcolor="#399de5"] ;
282 -> 283 ;
284 [label=<gini = 0.0<br/>samples = 1<br/>value = [1, 0]>, fillcolor="#e58139"] ;
282 -> 284 ;
285 [label=<gini = 0.0<br/>samples = 1<br/>value = [0, 1]>, fillcolor="#399de5"] ;
275 -> 285 ;
286 [label=<X<SUB>3</SUB> &le; 0.5<br/>gini = 0.124<br/>samples = 45<br/>value = [42, 3]>, fillcolor="#e78a47"] ;
230 -> 286 ;
287 [label=<X<SUB>241</SUB> &le; 0.5<br/>gini = 0.087<br/>samples = 44<br/>value = [42, 2]>, fillcolor="#e68742"] ;
286 -> 287 ;
288 [label=<X<SUB>650</SUB> &le; 0.5<br/>gini = 0.045<br/>samples = 43<br/>value = [42, 1]>, fillcolor="#e6843e"] ;
287 -> 288 ;
289 [label=<gini = 0.0<br/>samples = 42<br/>value = [42, 0]>, fillcolor="#e58139"] ;
288 -> 289 ;
290 [label=<gini = 0.0<br/>samples = 1<br/>value = [0, 1]>, fillcolor="#399de5"] ;
288 -> 290 ;
291 [label=<gini = 0.0<br/>samples = 1<br/>value = [0, 1]>, fillcolor="#399de5"] ;
287 -> 291 ;
292 [label=<gini = 0.0<br/>samples = 1<br/>value = [0, 1]>, fillcolor="#399de5"] ;
286 -> 292 ;
293 [label=<X<SUB>117</SUB> &le; 0.5<br/>gini = 0.188<br/>samples = 19<br/>value = [17, 2]>, fillcolor="#e89050"] ;
229 -> 293 ;
294 [label=<gini = 0.0<br/>samples = 17<br/>value = [17, 0]>, fillcolor="#e58139"] ;
293 -> 294 ;
295 [label=<gini = 0.0<br/>samples = 2<br/>value = [0, 2]>, fillcolor="#399de5"] ;
293 -> 295 ;
296 [label=<X<SUB>248</SUB> &le; 0.5<br/>gini = 0.106<br/>samples = 89<br/>value = [84, 5]>, fillcolor="#e78845"] ;
228 -> 296 ;
297 [label=<X<SUB>3</SUB> &le; 0.5<br/>gini = 0.067<br/>samples = 87<br/>value = [84, 3]>, fillcolor="#e68640"] ;
296 -> 297 ;
298 [label=<X<SUB>121</SUB> &le; 0.5<br/>gini = 0.045<br/>samples = 86<br/>value = [84, 2]>, fillcolor="#e6843e"] ;
297 -> 298 ;
299 [label=<X<SUB>330</SUB> &le; 0.5<br/>gini = 0.023<br/>samples = 85<br/>value = [84, 1]>, fillcolor="#e5823b"] ;
298 -> 299 ;
300 [label=<gini = 0.0<br/>samples = 83<br/>value = [83, 0]>, fillcolor="#e58139"] ;
299 -> 300 ;
301 [label=<X<SUB>458</SUB> &le; 0.5<br/>gini = 0.5<br/>samples = 2<br/>value = [1, 1]>, fillcolor="#ffffff"] ;
299 -> 301 ;
302 [label=<gini = 0.0<br/>samples = 1<br/>value = [1, 0]>, fillcolor="#e58139"] ;
301 -> 302 ;
303 [label=<gini = 0.0<br/>samples = 1<br/>value = [0, 1]>, fillcolor="#399de5"] ;
301 -> 303 ;
304 [label=<gini = 0.0<br/>samples = 1<br/>value = [0, 1]>, fillcolor="#399de5"] ;
298 -> 304 ;
305 [label=<gini = 0.0<br/>samples = 1<br/>value = [0, 1]>, fillcolor="#399de5"] ;
297 -> 305 ;
306 [label=<gini = 0.0<br/>samples = 2<br/>value = [0, 2]>, fillcolor="#399de5"] ;
296 -> 306 ;
307 [label=<X<SUB>654</SUB> &le; 0.5<br/>gini = 0.165<br/>samples = 33<br/>value = [30, 3]>, fillcolor="#e88e4d"] ;
227 -> 307 ;
308 [label=<X<SUB>69</SUB> &le; 0.5<br/>gini = 0.064<br/>samples = 30<br/>value = [29, 1]>, fillcolor="#e68540"] ;
307 -> 308 ;
309 [label=<gini = 0.0<br/>samples = 29<br/>value = [29, 0]>, fillcolor="#e58139"] ;
308 -> 309 ;
310 [label=<gini = 0.0<br/>samples = 1<br/>value = [0, 1]>, fillcolor="#399de5"] ;
308 -> 310 ;
311 [label=<X<SUB>857</SUB> &le; 0.5<br/>gini = 0.444<br/>samples = 3<br/>value = [1, 2]>, fillcolor="#9ccef2"] ;
307 -> 311 ;
312 [label=<gini = 0.0<br/>samples = 2<br/>value = [0, 2]>, fillcolor="#399de5"] ;
311 -> 312 ;
313 [label=<gini = 0.0<br/>samples = 1<br/>value = [1, 0]>, fillcolor="#e58139"] ;
311 -> 313 ;
314 [label=<X<SUB>32</SUB> &le; 0.5<br/>gini = 0.14<br/>samples = 79<br/>value = [73, 6]>, fillcolor="#e78b49"] ;
226 -> 314 ;
315 [label=<X<SUB>795</SUB> &le; 0.5<br/>gini = 0.055<br/>samples = 71<br/>value = [69, 2]>, fillcolor="#e6853f"] ;
314 -> 315 ;
316 [label=<X<SUB>775</SUB> &le; 0.5<br/>gini = 0.028<br/>samples = 70<br/>value = [69, 1]>, fillcolor="#e5833c"] ;
315 -> 316 ;
317 [label=<gini = 0.0<br/>samples = 69<br/>value = [69, 0]>, fillcolor="#e58139"] ;
316 -> 317 ;
318 [label=<gini = 0.0<br/>samples = 1<br/>value = [0, 1]>, fillcolor="#399de5"] ;
316 -> 318 ;
319 [label=<gini = 0.0<br/>samples = 1<br/>value = [0, 1]>, fillcolor="#399de5"] ;
315 -> 319 ;
320 [label=<X<SUB>829</SUB> &le; 0.5<br/>gini = 0.5<br/>samples = 8<br/>value = [4, 4]>, fillcolor="#ffffff"] ;
314 -> 320 ;
321 [label=<gini = 0.0<br/>samples = 4<br/>value = [4, 0]>, fillcolor="#e58139"] ;
320 -> 321 ;
322 [label=<gini = 0.0<br/>samples = 4<br/>value = [0, 4]>, fillcolor="#399de5"] ;
320 -> 322 ;
323 [label=<X<SUB>854</SUB> &le; 0.5<br/>gini = 0.208<br/>samples = 34<br/>value = [30, 4]>, fillcolor="#e89253"] ;
225 -> 323 ;
324 [label=<X<SUB>119</SUB> &le; 0.5<br/>gini = 0.064<br/>samples = 30<br/>value = [29, 1]>, fillcolor="#e68540"] ;
323 -> 324 ;
325 [label=<gini = 0.0<br/>samples = 29<br/>value = [29, 0]>, fillcolor="#e58139"] ;
324 -> 325 ;
326 [label=<gini = 0.0<br/>samples = 1<br/>value = [0, 1]>, fillcolor="#399de5"] ;
324 -> 326 ;
327 [label=<X<SUB>487</SUB> &le; 0.5<br/>gini = 0.375<br/>samples = 4<br/>value = [1, 3]>, fillcolor="#7bbeee"] ;
323 -> 327 ;
328 [label=<gini = 0.0<br/>samples = 3<br/>value = [0, 3]>, fillcolor="#399de5"] ;
327 -> 328 ;
329 [label=<gini = 0.0<br/>samples = 1<br/>value = [1, 0]>, fillcolor="#e58139"] ;
327 -> 329 ;
330 [label=<X<SUB>530</SUB> &le; 0.5<br/>gini = 0.158<br/>samples = 81<br/>value = [74, 7]>, fillcolor="#e78d4c"] ;
224 -> 330 ;
331 [label=<X<SUB>790</SUB> &le; 0.5<br/>gini = 0.097<br/>samples = 78<br/>value = [74, 4]>, fillcolor="#e68844"] ;
330 -> 331 ;
332 [label=<gini = 0.0<br/>samples = 72<br/>value = [72, 0]>, fillcolor="#e58139"] ;
331 -> 332 ;
333 [label=<X<SUB>736</SUB> &le; 0.5<br/>gini = 0.444<br/>samples = 6<br/>value = [2, 4]>, fillcolor="#9ccef2"] ;
331 -> 333 ;
334 [label=<gini = 0.0<br/>samples = 3<br/>value = [0, 3]>, fillcolor="#399de5"] ;
333 -> 334 ;
335 [label=<X<SUB>77</SUB> &le; 0.5<br/>gini = 0.444<br/>samples = 3<br/>value = [2, 1]>, fillcolor="#f2c09c"] ;
333 -> 335 ;
336 [label=<gini = 0.0<br/>samples = 1<br/>value = [1, 0]>, fillcolor="#e58139"] ;
335 -> 336 ;
337 [label=<gini = 0.5<br/>samples = 2<br/>value = [1, 1]>, fillcolor="#ffffff"] ;
335 -> 337 ;
338 [label=<gini = 0.0<br/>samples = 3<br/>value = [0, 3]>, fillcolor="#399de5"] ;
330 -> 338 ;
339 [label=<X<SUB>792</SUB> &le; 0.5<br/>gini = 0.171<br/>samples = 127<br/>value = [115, 12]>, fillcolor="#e88e4e"] ;
223 -> 339 ;
340 [label=<X<SUB>447</SUB> &le; 0.5<br/>gini = 0.099<br/>samples = 115<br/>value = [109, 6]>, fillcolor="#e68844"] ;
339 -> 340 ;
341 [label=<X<SUB>698</SUB> &le; 0.5<br/>gini = 0.054<br/>samples = 109<br/>value = [106, 3]>, fillcolor="#e6853f"] ;
340 -> 341 ;
342 [label=<X<SUB>140</SUB> &le; 0.5<br/>gini = 0.036<br/>samples = 108<br/>value = [106, 2]>, fillcolor="#e5833d"] ;
341 -> 342 ;
343 [label=<X<SUB>1022</SUB> &le; 0.5<br/>gini = 0.019<br/>samples = 107<br/>value = [106, 1]>, fillcolor="#e5823b"] ;
342 -> 343 ;
344 [label=<gini = 0.0<br/>samples = 105<br/>value = [105, 0]>, fillcolor="#e58139"] ;
343 -> 344 ;
345 [label=<X<SUB>685</SUB> &le; 0.5<br/>gini = 0.5<br/>samples = 2<br/>value = [1, 1]>, fillcolor="#ffffff"] ;
343 -> 345 ;
346 [label=<gini = 0.0<br/>samples = 1<br/>value = [0, 1]>, fillcolor="#399de5"] ;
345 -> 346 ;
347 [label=<gini = 0.0<br/>samples = 1<br/>value = [1, 0]>, fillcolor="#e58139"] ;
345 -> 347 ;
348 [label=<gini = 0.0<br/>samples = 1<br/>value = [0, 1]>, fillcolor="#399de5"] ;
342 -> 348 ;
349 [label=<gini = 0.0<br/>samples = 1<br/>value = [0, 1]>, fillcolor="#399de5"] ;
341 -> 349 ;
350 [label=<X<SUB>158</SUB> &le; 0.5<br/>gini = 0.5<br/>samples = 6<br/>value = [3, 3]>, fillcolor="#ffffff"] ;
340 -> 350 ;
351 [label=<gini = 0.0<br/>samples = 3<br/>value = [3, 0]>, fillcolor="#e58139"] ;
350 -> 351 ;
352 [label=<gini = 0.0<br/>samples = 3<br/>value = [0, 3]>, fillcolor="#399de5"] ;
350 -> 352 ;
353 [label=<X<SUB>1000</SUB> &le; 0.5<br/>gini = 0.5<br/>samples = 12<br/>value = [6, 6]>, fillcolor="#ffffff"] ;
339 -> 353 ;
354 [label=<X<SUB>779</SUB> &le; 0.5<br/>gini = 0.375<br/>samples = 8<br/>value = [6, 2]>, fillcolor="#eeab7b"] ;
353 -> 354 ;
355 [label=<X<SUB>155</SUB> &le; 0.5<br/>gini = 0.245<br/>samples = 7<br/>value = [6, 1]>, fillcolor="#e9965a"] ;
354 -> 355 ;
356 [label=<gini = 0.0<br/>samples = 5<br/>value = [5, 0]>, fillcolor="#e58139"] ;
355 -> 356 ;
357 [label=<gini = 0.5<br/>samples = 2<br/>value = [1, 1]>, fillcolor="#ffffff"] ;
355 -> 357 ;
358 [label=<gini = 0.0<br/>samples = 1<br/>value = [0, 1]>, fillcolor="#399de5"] ;
354 -> 358 ;
359 [label=<gini = 0.0<br/>samples = 4<br/>value = [0, 4]>, fillcolor="#399de5"] ;
353 -> 359 ;
360 [label=<X<SUB>701</SUB> &le; 0.5<br/>gini = 0.156<br/>samples = 293<br/>value = [268, 25]>, fillcolor="#e78d4b"] ;
4 -> 360 ;
361 [label=<X<SUB>116</SUB> &le; 0.5<br/>gini = 0.119<br/>samples = 283<br/>value = [265, 18]>, fillcolor="#e78a46"] ;
360 -> 361 ;
362 [label=<X<SUB>929</SUB> &le; 0.5<br/>gini = 0.404<br/>samples = 32<br/>value = [23, 9]>, fillcolor="#efb286"] ;
361 -> 362 ;
363 [label=<X<SUB>695</SUB> &le; 0.5<br/>gini = 0.227<br/>samples = 23<br/>value = [20, 3]>, fillcolor="#e99457"] ;
362 -> 363 ;
364 [label=<X<SUB>271</SUB> &le; 0.5<br/>gini = 0.091<br/>samples = 21<br/>value = [20, 1]>, fillcolor="#e68743"] ;
363 -> 364 ;
365 [label=<gini = 0.0<br/>samples = 19<br/>value = [19, 0]>, fillcolor="#e58139"] ;
364 -> 365 ;
366 [label=<X<SUB>195</SUB> &le; 0.5<br/>gini = 0.5<br/>samples = 2<br/>value = [1, 1]>, fillcolor="#ffffff"] ;
364 -> 366 ;
367 [label=<gini = 0.0<br/>samples = 1<br/>value = [0, 1]>, fillcolor="#399de5"] ;
366 -> 367 ;
368 [label=<gini = 0.0<br/>samples = 1<br/>value = [1, 0]>, fillcolor="#e58139"] ;
366 -> 368 ;
369 [label=<gini = 0.0<br/>samples = 2<br/>value = [0, 2]>, fillcolor="#399de5"] ;
363 -> 369 ;
370 [label=<X<SUB>561</SUB> &le; 0.5<br/>gini = 0.444<br/>samples = 9<br/>value = [3, 6]>, fillcolor="#9ccef2"] ;
362 -> 370 ;
371 [label=<X<SUB>813</SUB> &le; 0.5<br/>gini = 0.245<br/>samples = 7<br/>value = [1, 6]>, fillcolor="#5aade9"] ;
370 -> 371 ;
372 [label=<X<SUB>949</SUB> &le; 0.5<br/>gini = 0.5<br/>samples = 2<br/>value = [1, 1]>, fillcolor="#ffffff"] ;
371 -> 372 ;
373 [label=<gini = 0.0<br/>samples = 1<br/>value = [1, 0]>, fillcolor="#e58139"] ;
372 -> 373 ;
374 [label=<gini = 0.0<br/>samples = 1<br/>value = [0, 1]>, fillcolor="#399de5"] ;
372 -> 374 ;
375 [label=<gini = 0.0<br/>samples = 5<br/>value = [0, 5]>, fillcolor="#399de5"] ;
371 -> 375 ;
376 [label=<gini = 0.0<br/>samples = 2<br/>value = [2, 0]>, fillcolor="#e58139"] ;
370 -> 376 ;
377 [label=<X<SUB>196</SUB> &le; 0.5<br/>gini = 0.069<br/>samples = 251<br/>value = [242, 9]>, fillcolor="#e68640"] ;
361 -> 377 ;
378 [label=<X<SUB>148</SUB> &le; 0.5<br/>gini = 0.055<br/>samples = 248<br/>value = [241, 7]>, fillcolor="#e6853f"] ;
377 -> 378 ;
379 [label=<X<SUB>628</SUB> &le; 0.5<br/>gini = 0.047<br/>samples = 247<br/>value = [241, 6]>, fillcolor="#e6843e"] ;
378 -> 379 ;
380 [label=<X<SUB>654</SUB> &le; 0.5<br/>gini = 0.04<br/>samples = 246<br/>value = [241, 5]>, fillcolor="#e6843d"] ;
379 -> 380 ;
381 [label=<X<SUB>457</SUB> &le; 0.5<br/>gini = 0.032<br/>samples = 245<br/>value = [241, 4]>, fillcolor="#e5833c"] ;
380 -> 381 ;
382 [label=<X<SUB>224</SUB> &le; 0.5<br/>gini = 0.017<br/>samples = 238<br/>value = [236, 2]>, fillcolor="#e5823b"] ;
381 -> 382 ;
383 [label=<X<SUB>427</SUB> &le; 0.5<br/>gini = 0.008<br/>samples = 235<br/>value = [234, 1]>, fillcolor="#e5823a"] ;
382 -> 383 ;
384 [label=<gini = 0.0<br/>samples = 231<br/>value = [231, 0]>, fillcolor="#e58139"] ;
383 -> 384 ;
385 [label=<X<SUB>615</SUB> &le; 0.5<br/>gini = 0.375<br/>samples = 4<br/>value = [3, 1]>, fillcolor="#eeab7b"] ;
383 -> 385 ;
386 [label=<gini = 0.0<br/>samples = 3<br/>value = [3, 0]>, fillcolor="#e58139"] ;
385 -> 386 ;
387 [label=<gini = 0.0<br/>samples = 1<br/>value = [0, 1]>, fillcolor="#399de5"] ;
385 -> 387 ;
388 [label=<X<SUB>745</SUB> &le; 0.5<br/>gini = 0.444<br/>samples = 3<br/>value = [2, 1]>, fillcolor="#f2c09c"] ;
382 -> 388 ;
389 [label=<gini = 0.0<br/>samples = 1<br/>value = [0, 1]>, fillcolor="#399de5"] ;
388 -> 389 ;
390 [label=<gini = 0.0<br/>samples = 2<br/>value = [2, 0]>, fillcolor="#e58139"] ;
388 -> 390 ;
391 [label=<X<SUB>414</SUB> &le; 0.5<br/>gini = 0.408<br/>samples = 7<br/>value = [5, 2]>, fillcolor="#efb388"] ;
381 -> 391 ;
392 [label=<gini = 0.0<br/>samples = 2<br/>value = [0, 2]>, fillcolor="#399de5"] ;
391 -> 392 ;
393 [label=<gini = 0.0<br/>samples = 5<br/>value = [5, 0]>, fillcolor="#e58139"] ;
391 -> 393 ;
394 [label=<gini = 0.0<br/>samples = 1<br/>value = [0, 1]>, fillcolor="#399de5"] ;
380 -> 394 ;
395 [label=<gini = 0.0<br/>samples = 1<br/>value = [0, 1]>, fillcolor="#399de5"] ;
379 -> 395 ;
396 [label=<gini = 0.0<br/>samples = 1<br/>value = [0, 1]>, fillcolor="#399de5"] ;
378 -> 396 ;
397 [label=<X<SUB>887</SUB> &le; 0.5<br/>gini = 0.444<br/>samples = 3<br/>value = [1, 2]>, fillcolor="#9ccef2"] ;
377 -> 397 ;
398 [label=<gini = 0.0<br/>samples = 2<br/>value = [0, 2]>, fillcolor="#399de5"] ;
397 -> 398 ;
399 [label=<gini = 0.0<br/>samples = 1<br/>value = [1, 0]>, fillcolor="#e58139"] ;
397 -> 399 ;
400 [label=<X<SUB>281</SUB> &le; 0.5<br/>gini = 0.42<br/>samples = 10<br/>value = [3, 7]>, fillcolor="#8ec7f0"] ;
360 -> 400 ;
401 [label=<gini = 0.0<br/>samples = 3<br/>value = [3, 0]>, fillcolor="#e58139"] ;
400 -> 401 ;
402 [label=<gini = 0.0<br/>samples = 7<br/>value = [0, 7]>, fillcolor="#399de5"] ;
400 -> 402 ;
403 [label=<X<SUB>464</SUB> &le; 0.5<br/>gini = 0.287<br/>samples = 138<br/>value = [114, 24]>, fillcolor="#ea9c63"] ;
3 -> 403 ;
404 [label=<X<SUB>1016</SUB> &le; 0.5<br/>gini = 0.219<br/>samples = 128<br/>value = [112, 16]>, fillcolor="#e99355"] ;
403 -> 404 ;
405 [label=<X<SUB>796</SUB> &le; 0.5<br/>gini = 0.175<br/>samples = 124<br/>value = [112, 12]>, fillcolor="#e88e4e"] ;
404 -> 405 ;
406 [label=<X<SUB>955</SUB> &le; 0.5<br/>gini = 0.14<br/>samples = 119<br/>value = [110, 9]>, fillcolor="#e78b49"] ;
405 -> 406 ;
407 [label=<X<SUB>530</SUB> &le; 0.5<br/>gini = 0.101<br/>samples = 112<br/>value = [106, 6]>, fillcolor="#e68844"] ;
406 -> 407 ;
408 [label=<X<SUB>882</SUB> &le; 0.5<br/>gini = 0.071<br/>samples = 109<br/>value = [105, 4]>, fillcolor="#e68641"] ;
407 -> 408 ;
409 [label=<X<SUB>251</SUB> &le; 0.5<br/>gini = 0.054<br/>samples = 108<br/>value = [105, 3]>, fillcolor="#e6853f"] ;
408 -> 409 ;
410 [label=<X<SUB>255</SUB> &le; 0.5<br/>gini = 0.037<br/>samples = 107<br/>value = [105, 2]>, fillcolor="#e5833d"] ;
409 -> 410 ;
411 [label=<X<SUB>946</SUB> &le; 0.5<br/>gini = 0.019<br/>samples = 105<br/>value = [104, 1]>, fillcolor="#e5823b"] ;
410 -> 411 ;
412 [label=<gini = 0.0<br/>samples = 100<br/>value = [100, 0]>, fillcolor="#e58139"] ;
411 -> 412 ;
413 [label=<X<SUB>805</SUB> &le; 0.5<br/>gini = 0.32<br/>samples = 5<br/>value = [4, 1]>, fillcolor="#eca06a"] ;
411 -> 413 ;
414 [label=<X<SUB>602</SUB> &le; 0.5<br/>gini = 0.5<br/>samples = 2<br/>value = [1, 1]>, fillcolor="#ffffff"] ;
413 -> 414 ;
415 [label=<gini = 0.0<br/>samples = 1<br/>value = [0, 1]>, fillcolor="#399de5"] ;
414 -> 415 ;
416 [label=<gini = 0.0<br/>samples = 1<br/>value = [1, 0]>, fillcolor="#e58139"] ;
414 -> 416 ;
417 [label=<gini = 0.0<br/>samples = 3<br/>value = [3, 0]>, fillcolor="#e58139"] ;
413 -> 417 ;
418 [label=<X<SUB>635</SUB> &le; 0.5<br/>gini = 0.5<br/>samples = 2<br/>value = [1, 1]>, fillcolor="#ffffff"] ;
410 -> 418 ;
419 [label=<gini = 0.0<br/>samples = 1<br/>value = [0, 1]>, fillcolor="#399de5"] ;
418 -> 419 ;
420 [label=<gini = 0.0<br/>samples = 1<br/>value = [1, 0]>, fillcolor="#e58139"] ;
418 -> 420 ;
421 [label=<gini = 0.0<br/>samples = 1<br/>value = [0, 1]>, fillcolor="#399de5"] ;
409 -> 421 ;
422 [label=<gini = 0.0<br/>samples = 1<br/>value = [0, 1]>, fillcolor="#399de5"] ;
408 -> 422 ;
423 [label=<X<SUB>578</SUB> &le; 0.5<br/>gini = 0.444<br/>samples = 3<br/>value = [1, 2]>, fillcolor="#9ccef2"] ;
407 -> 423 ;
424 [label=<gini = 0.0<br/>samples = 2<br/>value = [0, 2]>, fillcolor="#399de5"] ;
423 -> 424 ;
425 [label=<gini = 0.0<br/>samples = 1<br/>value = [1, 0]>, fillcolor="#e58139"] ;
423 -> 425 ;
426 [label=<X<SUB>53</SUB> &le; 0.5<br/>gini = 0.49<br/>samples = 7<br/>value = [4, 3]>, fillcolor="#f8e0ce"] ;
406 -> 426 ;
427 [label=<gini = 0.0<br/>samples = 3<br/>value = [0, 3]>, fillcolor="#399de5"] ;
426 -> 427 ;
428 [label=<gini = 0.0<br/>samples = 4<br/>value = [4, 0]>, fillcolor="#e58139"] ;
426 -> 428 ;
429 [label=<X<SUB>510</SUB> &le; 0.5<br/>gini = 0.48<br/>samples = 5<br/>value = [2, 3]>, fillcolor="#bddef6"] ;
405 -> 429 ;
430 [label=<gini = 0.0<br/>samples = 3<br/>value = [0, 3]>, fillcolor="#399de5"] ;
429 -> 430 ;
431 [label=<gini = 0.0<br/>samples = 2<br/>value = [2, 0]>, fillcolor="#e58139"] ;
429 -> 431 ;
432 [label=<gini = 0.0<br/>samples = 4<br/>value = [0, 4]>, fillcolor="#399de5"] ;
404 -> 432 ;
433 [label=<X<SUB>6</SUB> &le; 0.5<br/>gini = 0.32<br/>samples = 10<br/>value = [2, 8]>, fillcolor="#6ab6ec"] ;
403 -> 433 ;
434 [label=<gini = 0.0<br/>samples = 8<br/>value = [0, 8]>, fillcolor="#399de5"] ;
433 -> 434 ;
435 [label=<gini = 0.0<br/>samples = 2<br/>value = [2, 0]>, fillcolor="#e58139"] ;
433 -> 435 ;
436 [label=<X<SUB>1015</SUB> &le; 0.5<br/>gini = 0.308<br/>samples = 168<br/>value = [136, 32]>, fillcolor="#eb9f68"] ;
2 -> 436 ;
437 [label=<X<SUB>945</SUB> &le; 0.5<br/>gini = 0.198<br/>samples = 126<br/>value = [112, 14]>, fillcolor="#e89152"] ;
436 -> 437 ;
438 [label=<X<SUB>235</SUB> &le; 0.5<br/>gini = 0.072<br/>samples = 107<br/>value = [103, 4]>, fillcolor="#e68641"] ;
437 -> 438 ;
439 [label=<X<SUB>9</SUB> &le; 0.5<br/>gini = 0.019<br/>samples = 102<br/>value = [101, 1]>, fillcolor="#e5823b"] ;
438 -> 439 ;
440 [label=<gini = 0.0<br/>samples = 101<br/>value = [101, 0]>, fillcolor="#e58139"] ;
439 -> 440 ;
441 [label=<gini = 0.0<br/>samples = 1<br/>value = [0, 1]>, fillcolor="#399de5"] ;
439 -> 441 ;
442 [label=<X<SUB>854</SUB> &le; 0.5<br/>gini = 0.48<br/>samples = 5<br/>value = [2, 3]>, fillcolor="#bddef6"] ;
438 -> 442 ;
443 [label=<gini = 0.0<br/>samples = 2<br/>value = [2, 0]>, fillcolor="#e58139"] ;
442 -> 443 ;
444 [label=<gini = 0.0<br/>samples = 3<br/>value = [0, 3]>, fillcolor="#399de5"] ;
442 -> 444 ;
445 [label=<X<SUB>753</SUB> &le; 0.5<br/>gini = 0.499<br/>samples = 19<br/>value = [9, 10]>, fillcolor="#ebf5fc"] ;
437 -> 445 ;
446 [label=<X<SUB>608</SUB> &le; 0.5<br/>gini = 0.298<br/>samples = 11<br/>value = [9, 2]>, fillcolor="#eb9d65"] ;
445 -> 446 ;
447 [label=<X<SUB>951</SUB> &le; 0.5<br/>gini = 0.18<br/>samples = 10<br/>value = [9, 1]>, fillcolor="#e88f4f"] ;
446 -> 447 ;
448 [label=<gini = 0.0<br/>samples = 9<br/>value = [9, 0]>, fillcolor="#e58139"] ;
447 -> 448 ;
449 [label=<gini = 0.0<br/>samples = 1<br/>value = [0, 1]>, fillcolor="#399de5"] ;
447 -> 449 ;
450 [label=<gini = 0.0<br/>samples = 1<br/>value = [0, 1]>, fillcolor="#399de5"] ;
446 -> 450 ;
451 [label=<gini = 0.0<br/>samples = 8<br/>value = [0, 8]>, fillcolor="#399de5"] ;
445 -> 451 ;
452 [label=<X<SUB>525</SUB> &le; 0.5<br/>gini = 0.49<br/>samples = 42<br/>value = [24, 18]>, fillcolor="#f8e0ce"] ;
436 -> 452 ;
453 [label=<X<SUB>101</SUB> &le; 0.5<br/>gini = 0.459<br/>samples = 28<br/>value = [10, 18]>, fillcolor="#a7d3f3"] ;
452 -> 453 ;
454 [label=<X<SUB>248</SUB> &le; 0.5<br/>gini = 0.291<br/>samples = 17<br/>value = [3, 14]>, fillcolor="#63b2eb"] ;
453 -> 454 ;
455 [label=<X<SUB>362</SUB> &le; 0.5<br/>gini = 0.219<br/>samples = 16<br/>value = [2, 14]>, fillcolor="#55abe9"] ;
454 -> 455 ;
456 [label=<X<SUB>771</SUB> &le; 0.5<br/>gini = 0.124<br/>samples = 15<br/>value = [1, 14]>, fillcolor="#47a4e7"] ;
455 -> 456 ;
457 [label=<gini = 0.0<br/>samples = 12<br/>value = [0, 12]>, fillcolor="#399de5"] ;
456 -> 457 ;
458 [label=<X<SUB>399</SUB> &le; 0.5<br/>gini = 0.444<br/>samples = 3<br/>value = [1, 2]>, fillcolor="#9ccef2"] ;
456 -> 458 ;
459 [label=<gini = 0.0<br/>samples = 2<br/>value = [0, 2]>, fillcolor="#399de5"] ;
458 -> 459 ;
460 [label=<gini = 0.0<br/>samples = 1<br/>value = [1, 0]>, fillcolor="#e58139"] ;
458 -> 460 ;
461 [label=<gini = 0.0<br/>samples = 1<br/>value = [1, 0]>, fillcolor="#e58139"] ;
455 -> 461 ;
462 [label=<gini = 0.0<br/>samples = 1<br/>value = [1, 0]>, fillcolor="#e58139"] ;
454 -> 462 ;
463 [label=<X<SUB>139</SUB> &le; 0.5<br/>gini = 0.463<br/>samples = 11<br/>value = [7, 4]>, fillcolor="#f4c9aa"] ;
453 -> 463 ;
464 [label=<gini = 0.0<br/>samples = 7<br/>value = [7, 0]>, fillcolor="#e58139"] ;
463 -> 464 ;
465 [label=<gini = 0.0<br/>samples = 4<br/>value = [0, 4]>, fillcolor="#399de5"] ;
463 -> 465 ;
466 [label=<gini = 0.0<br/>samples = 14<br/>value = [14, 0]>, fillcolor="#e58139"] ;
452 -> 466 ;
467 [label=<X<SUB>793</SUB> &le; 0.5<br/>gini = 0.34<br/>samples = 166<br/>value = [130, 36]>, fillcolor="#eca470"] ;
1 -> 467 ;
468 [label=<X<SUB>499</SUB> &le; 0.5<br/>gini = 0.194<br/>samples = 138<br/>value = [123, 15]>, fillcolor="#e89051"] ;
467 -> 468 ;
469 [label=<X<SUB>31</SUB> &le; 0.5<br/>gini = 0.163<br/>samples = 134<br/>value = [122, 12]>, fillcolor="#e88d4c"] ;
468 -> 469 ;
470 [label=<X<SUB>400</SUB> &le; 0.5<br/>gini = 0.107<br/>samples = 124<br/>value = [117, 7]>, fillcolor="#e78945"] ;
469 -> 470 ;
471 [label=<X<SUB>528</SUB> &le; 0.5<br/>gini = 0.066<br/>samples = 117<br/>value = [113, 4]>, fillcolor="#e68540"] ;
470 -> 471 ;
472 [label=<X<SUB>493</SUB> &le; 0.5<br/>gini = 0.051<br/>samples = 115<br/>value = [112, 3]>, fillcolor="#e6843e"] ;
471 -> 472 ;
473 [label=<X<SUB>662</SUB> &le; 0.5<br/>gini = 0.019<br/>samples = 105<br/>value = [104, 1]>, fillcolor="#e5823b"] ;
472 -> 473 ;
474 [label=<gini = 0.0<br/>samples = 101<br/>value = [101, 0]>, fillcolor="#e58139"] ;
473 -> 474 ;
475 [label=<X<SUB>807</SUB> &le; 0.5<br/>gini = 0.375<br/>samples = 4<br/>value = [3, 1]>, fillcolor="#eeab7b"] ;
473 -> 475 ;
476 [label=<gini = 0.0<br/>samples = 3<br/>value = [3, 0]>, fillcolor="#e58139"] ;
475 -> 476 ;
477 [label=<gini = 0.0<br/>samples = 1<br/>value = [0, 1]>, fillcolor="#399de5"] ;
475 -> 477 ;
478 [label=<X<SUB>437</SUB> &le; 0.5<br/>gini = 0.32<br/>samples = 10<br/>value = [8, 2]>, fillcolor="#eca06a"] ;
472 -> 478 ;
479 [label=<gini = 0.0<br/>samples = 1<br/>value = [0, 1]>, fillcolor="#399de5"] ;
478 -> 479 ;
480 [label=<X<SUB>975</SUB> &le; 0.5<br/>gini = 0.198<br/>samples = 9<br/>value = [8, 1]>, fillcolor="#e89152"] ;
478 -> 480 ;
481 [label=<gini = 0.0<br/>samples = 8<br/>value = [8, 0]>, fillcolor="#e58139"] ;
480 -> 481 ;
482 [label=<gini = 0.0<br/>samples = 1<br/>value = [0, 1]>, fillcolor="#399de5"] ;
480 -> 482 ;
483 [label=<gini = 0.5<br/>samples = 2<br/>value = [1, 1]>, fillcolor="#ffffff"] ;
471 -> 483 ;
484 [label=<X<SUB>470</SUB> &le; 0.5<br/>gini = 0.49<br/>samples = 7<br/>value = [4, 3]>, fillcolor="#f8e0ce"] ;
470 -> 484 ;
485 [label=<gini = 0.0<br/>samples = 3<br/>value = [3, 0]>, fillcolor="#e58139"] ;
484 -> 485 ;
486 [label=<X<SUB>7</SUB> &le; 0.5<br/>gini = 0.375<br/>samples = 4<br/>value = [1, 3]>, fillcolor="#7bbeee"] ;
484 -> 486 ;
487 [label=<gini = 0.0<br/>samples = 3<br/>value = [0, 3]>, fillcolor="#399de5"] ;
486 -> 487 ;
488 [label=<gini = 0.0<br/>samples = 1<br/>value = [1, 0]>, fillcolor="#e58139"] ;
486 -> 488 ;
489 [label=<X<SUB>13</SUB> &le; 0.5<br/>gini = 0.5<br/>samples = 10<br/>value = [5, 5]>, fillcolor="#ffffff"] ;
469 -> 489 ;
490 [label=<gini = 0.0<br/>samples = 5<br/>value = [0, 5]>, fillcolor="#399de5"] ;
489 -> 490 ;
491 [label=<gini = 0.0<br/>samples = 5<br/>value = [5, 0]>, fillcolor="#e58139"] ;
489 -> 491 ;
492 [label=<X<SUB>641</SUB> &le; 0.5<br/>gini = 0.375<br/>samples = 4<br/>value = [1, 3]>, fillcolor="#7bbeee"] ;
468 -> 492 ;
493 [label=<gini = 0.0<br/>samples = 3<br/>value = [0, 3]>, fillcolor="#399de5"] ;
492 -> 493 ;
494 [label=<gini = 0.0<br/>samples = 1<br/>value = [1, 0]>, fillcolor="#e58139"] ;
492 -> 494 ;
495 [label=<X<SUB>536</SUB> &le; 0.5<br/>gini = 0.375<br/>samples = 28<br/>value = [7, 21]>, fillcolor="#7bbeee"] ;
467 -> 495 ;
496 [label=<X<SUB>819</SUB> &le; 0.5<br/>gini = 0.269<br/>samples = 25<br/>value = [4, 21]>, fillcolor="#5fb0ea"] ;
495 -> 496 ;
497 [label=<gini = 0.0<br/>samples = 2<br/>value = [2, 0]>, fillcolor="#e58139"] ;
496 -> 497 ;
498 [label=<X<SUB>107</SUB> &le; 0.5<br/>gini = 0.159<br/>samples = 23<br/>value = [2, 21]>, fillcolor="#4ca6e7"] ;
496 -> 498 ;
499 [label=<X<SUB>328</SUB> &le; 0.5<br/>gini = 0.087<br/>samples = 22<br/>value = [1, 21]>, fillcolor="#42a2e6"] ;
498 -> 499 ;
500 [label=<gini = 0.0<br/>samples = 21<br/>value = [0, 21]>, fillcolor="#399de5"] ;
499 -> 500 ;
501 [label=<gini = 0.0<br/>samples = 1<br/>value = [1, 0]>, fillcolor="#e58139"] ;
499 -> 501 ;
502 [label=<gini = 0.0<br/>samples = 1<br/>value = [1, 0]>, fillcolor="#e58139"] ;
498 -> 502 ;
503 [label=<gini = 0.0<br/>samples = 3<br/>value = [3, 0]>, fillcolor="#e58139"] ;
495 -> 503 ;
504 [label=<X<SUB>449</SUB> &le; 0.5<br/>gini = 0.371<br/>samples = 1061<br/>value = [800, 261]>, fillcolor="#edaa7a"] ;
0 -> 504 [labeldistance=2.5, labelangle=-45, headlabel="False"] ;
505 [label=<X<SUB>37</SUB> &le; 0.5<br/>gini = 0.322<br/>samples = 963<br/>value = [769, 194]>, fillcolor="#eca16b"] ;
504 -> 505 ;
506 [label=<X<SUB>939</SUB> &le; 0.5<br/>gini = 0.202<br/>samples = 747<br/>value = [662, 85]>, fillcolor="#e89152"] ;
505 -> 506 ;
507 [label=<X<SUB>513</SUB> &le; 0.5<br/>gini = 0.15<br/>samples = 647<br/>value = [594, 53]>, fillcolor="#e78c4b"] ;
506 -> 507 ;
508 [label=<X<SUB>206</SUB> &le; 0.5<br/>gini = 0.124<br/>samples = 589<br/>value = [550, 39]>, fillcolor="#e78a47"] ;
507 -> 508 ;
509 [label=<X<SUB>470</SUB> &le; 0.5<br/>gini = 0.118<br/>samples = 586<br/>value = [549, 37]>, fillcolor="#e78946"] ;
508 -> 509 ;
510 [label=<X<SUB>929</SUB> &le; 0.5<br/>gini = 0.102<br/>samples = 558<br/>value = [528, 30]>, fillcolor="#e68844"] ;
509 -> 510 ;
511 [label=<X<SUB>716</SUB> &le; 0.5<br/>gini = 0.058<br/>samples = 401<br/>value = [389, 12]>, fillcolor="#e6853f"] ;
510 -> 511 ;
512 [label=<X<SUB>993</SUB> &le; 0.5<br/>gini = 0.053<br/>samples = 400<br/>value = [389, 11]>, fillcolor="#e6853f"] ;
511 -> 512 ;
513 [label=<X<SUB>867</SUB> &le; 0.5<br/>gini = 0.04<br/>samples = 388<br/>value = [380, 8]>, fillcolor="#e6843d"] ;
512 -> 513 ;
514 [label=<X<SUB>780</SUB> &le; 0.5<br/>gini = 0.036<br/>samples = 386<br/>value = [379, 7]>, fillcolor="#e5833d"] ;
513 -> 514 ;
515 [label=<X<SUB>478</SUB> &le; 0.5<br/>gini = 0.031<br/>samples = 384<br/>value = [378, 6]>, fillcolor="#e5833c"] ;
514 -> 515 ;
516 [label=<X<SUB>688</SUB> &le; 0.5<br/>gini = 0.021<br/>samples = 376<br/>value = [372, 4]>, fillcolor="#e5823b"] ;
515 -> 516 ;
517 [label=<X<SUB>981</SUB> &le; 0.5<br/>gini = 0.011<br/>samples = 367<br/>value = [365, 2]>, fillcolor="#e5823a"] ;
516 -> 517 ;
518 [label=<X<SUB>457</SUB> &le; 0.5<br/>gini = 0.005<br/>samples = 364<br/>value = [363, 1]>, fillcolor="#e5813a"] ;
517 -> 518 ;
519 [label=<gini = 0.0<br/>samples = 360<br/>value = [360, 0]>, fillcolor="#e58139"] ;
518 -> 519 ;
520 [label=<X<SUB>548</SUB> &le; 0.5<br/>gini = 0.375<br/>samples = 4<br/>value = [3, 1]>, fillcolor="#eeab7b"] ;
518 -> 520 ;
521 [label=<gini = 0.0<br/>samples = 3<br/>value = [3, 0]>, fillcolor="#e58139"] ;
520 -> 521 ;
522 [label=<gini = 0.0<br/>samples = 1<br/>value = [0, 1]>, fillcolor="#399de5"] ;
520 -> 522 ;
523 [label=<X<SUB>160</SUB> &le; 0.5<br/>gini = 0.444<br/>samples = 3<br/>value = [2, 1]>, fillcolor="#f2c09c"] ;
517 -> 523 ;
524 [label=<gini = 0.0<br/>samples = 2<br/>value = [2, 0]>, fillcolor="#e58139"] ;
523 -> 524 ;
525 [label=<gini = 0.0<br/>samples = 1<br/>value = [0, 1]>, fillcolor="#399de5"] ;
523 -> 525 ;
526 [label=<X<SUB>932</SUB> &le; 0.5<br/>gini = 0.346<br/>samples = 9<br/>value = [7, 2]>, fillcolor="#eca572"] ;
516 -> 526 ;
527 [label=<gini = 0.0<br/>samples = 2<br/>value = [0, 2]>, fillcolor="#399de5"] ;
526 -> 527 ;
528 [label=<gini = 0.0<br/>samples = 7<br/>value = [7, 0]>, fillcolor="#e58139"] ;
526 -> 528 ;
529 [label=<X<SUB>559</SUB> &le; 0.5<br/>gini = 0.375<br/>samples = 8<br/>value = [6, 2]>, fillcolor="#eeab7b"] ;
515 -> 529 ;
530 [label=<gini = 0.0<br/>samples = 6<br/>value = [6, 0]>, fillcolor="#e58139"] ;
529 -> 530 ;
531 [label=<gini = 0.0<br/>samples = 2<br/>value = [0, 2]>, fillcolor="#399de5"] ;
529 -> 531 ;
532 [label=<X<SUB>967</SUB> &le; 0.5<br/>gini = 0.5<br/>samples = 2<br/>value = [1, 1]>, fillcolor="#ffffff"] ;
514 -> 532 ;
533 [label=<gini = 0.0<br/>samples = 1<br/>value = [1, 0]>, fillcolor="#e58139"] ;
532 -> 533 ;
534 [label=<gini = 0.0<br/>samples = 1<br/>value = [0, 1]>, fillcolor="#399de5"] ;
532 -> 534 ;
535 [label=<X<SUB>742</SUB> &le; 0.5<br/>gini = 0.5<br/>samples = 2<br/>value = [1, 1]>, fillcolor="#ffffff"] ;
513 -> 535 ;
536 [label=<gini = 0.0<br/>samples = 1<br/>value = [0, 1]>, fillcolor="#399de5"] ;
535 -> 536 ;
537 [label=<gini = 0.0<br/>samples = 1<br/>value = [1, 0]>, fillcolor="#e58139"] ;
535 -> 537 ;
538 [label=<X<SUB>685</SUB> &le; 0.5<br/>gini = 0.375<br/>samples = 12<br/>value = [9, 3]>, fillcolor="#eeab7b"] ;
512 -> 538 ;
539 [label=<X<SUB>932</SUB> &le; 0.5<br/>gini = 0.375<br/>samples = 4<br/>value = [1, 3]>, fillcolor="#7bbeee"] ;
538 -> 539 ;
540 [label=<gini = 0.0<br/>samples = 3<br/>value = [0, 3]>, fillcolor="#399de5"] ;
539 -> 540 ;
541 [label=<gini = 0.0<br/>samples = 1<br/>value = [1, 0]>, fillcolor="#e58139"] ;
539 -> 541 ;
542 [label=<gini = 0.0<br/>samples = 8<br/>value = [8, 0]>, fillcolor="#e58139"] ;
538 -> 542 ;
543 [label=<gini = 0.0<br/>samples = 1<br/>value = [0, 1]>, fillcolor="#399de5"] ;
511 -> 543 ;
544 [label=<X<SUB>460</SUB> &le; 0.5<br/>gini = 0.203<br/>samples = 157<br/>value = [139, 18]>, fillcolor="#e89153"] ;
510 -> 544 ;
545 [label=<X<SUB>484</SUB> &le; 0.5<br/>gini = 0.169<br/>samples = 150<br/>value = [136, 14]>, fillcolor="#e88e4d"] ;
544 -> 545 ;
546 [label=<X<SUB>363</SUB> &le; 0.5<br/>gini = 0.132<br/>samples = 141<br/>value = [131, 10]>, fillcolor="#e78b48"] ;
545 -> 546 ;
547 [label=<X<SUB>886</SUB> &le; 0.5<br/>gini = 0.12<br/>samples = 140<br/>value = [131, 9]>, fillcolor="#e78a47"] ;
546 -> 547 ;
548 [label=<X<SUB>33</SUB> &le; 0.5<br/>gini = 0.108<br/>samples = 139<br/>value = [131, 8]>, fillcolor="#e78945"] ;
547 -> 548 ;
549 [label=<X<SUB>153</SUB> &le; 0.5<br/>gini = 0.096<br/>samples = 138<br/>value = [131, 7]>, fillcolor="#e68844"] ;
548 -> 549 ;
550 [label=<X<SUB>212</SUB> &le; 0.5<br/>gini = 0.084<br/>samples = 137<br/>value = [131, 6]>, fillcolor="#e68742"] ;
549 -> 550 ;
551 [label=<X<SUB>583</SUB> &le; 0.5<br/>gini = 0.059<br/>samples = 132<br/>value = [128, 4]>, fillcolor="#e6853f"] ;
550 -> 551 ;
552 [label=<X<SUB>392</SUB> &le; 0.5<br/>gini = 0.045<br/>samples = 129<br/>value = [126, 3]>, fillcolor="#e6843e"] ;
551 -> 552 ;
553 [label=<X<SUB>937</SUB> &le; 0.5<br/>gini = 0.031<br/>samples = 126<br/>value = [124, 2]>, fillcolor="#e5833c"] ;
552 -> 553 ;
554 [label=<X<SUB>247</SUB> &le; 0.5<br/>gini = 0.016<br/>samples = 123<br/>value = [122, 1]>, fillcolor="#e5823b"] ;
553 -> 554 ;
555 [label=<gini = 0.0<br/>samples = 119<br/>value = [119, 0]>, fillcolor="#e58139"] ;
554 -> 555 ;
556 [label=<X<SUB>76</SUB> &le; 0.5<br/>gini = 0.375<br/>samples = 4<br/>value = [3, 1]>, fillcolor="#eeab7b"] ;
554 -> 556 ;
557 [label=<gini = 0.0<br/>samples = 3<br/>value = [3, 0]>, fillcolor="#e58139"] ;
556 -> 557 ;
558 [label=<gini = 0.0<br/>samples = 1<br/>value = [0, 1]>, fillcolor="#399de5"] ;
556 -> 558 ;
559 [label=<X<SUB>181</SUB> &le; 0.5<br/>gini = 0.444<br/>samples = 3<br/>value = [2, 1]>, fillcolor="#f2c09c"] ;
553 -> 559 ;
560 [label=<gini = 0.0<br/>samples = 2<br/>value = [2, 0]>, fillcolor="#e58139"] ;
559 -> 560 ;
561 [label=<gini = 0.0<br/>samples = 1<br/>value = [0, 1]>, fillcolor="#399de5"] ;
559 -> 561 ;
562 [label=<X<SUB>985</SUB> &le; 0.5<br/>gini = 0.444<br/>samples = 3<br/>value = [2, 1]>, fillcolor="#f2c09c"] ;
552 -> 562 ;
563 [label=<gini = 0.0<br/>samples = 2<br/>value = [2, 0]>, fillcolor="#e58139"] ;
562 -> 563 ;
564 [label=<gini = 0.0<br/>samples = 1<br/>value = [0, 1]>, fillcolor="#399de5"] ;
562 -> 564 ;
565 [label=<X<SUB>649</SUB> &le; 0.5<br/>gini = 0.444<br/>samples = 3<br/>value = [2, 1]>, fillcolor="#f2c09c"] ;
551 -> 565 ;
566 [label=<gini = 0.0<br/>samples = 2<br/>value = [2, 0]>, fillcolor="#e58139"] ;
565 -> 566 ;
567 [label=<gini = 0.0<br/>samples = 1<br/>value = [0, 1]>, fillcolor="#399de5"] ;
565 -> 567 ;
568 [label=<X<SUB>971</SUB> &le; 0.5<br/>gini = 0.48<br/>samples = 5<br/>value = [3, 2]>, fillcolor="#f6d5bd"] ;
550 -> 568 ;
569 [label=<gini = 0.0<br/>samples = 3<br/>value = [3, 0]>, fillcolor="#e58139"] ;
568 -> 569 ;
570 [label=<gini = 0.0<br/>samples = 2<br/>value = [0, 2]>, fillcolor="#399de5"] ;
568 -> 570 ;
571 [label=<gini = 0.0<br/>samples = 1<br/>value = [0, 1]>, fillcolor="#399de5"] ;
549 -> 571 ;
572 [label=<gini = 0.0<br/>samples = 1<br/>value = [0, 1]>, fillcolor="#399de5"] ;
548 -> 572 ;
573 [label=<gini = 0.0<br/>samples = 1<br/>value = [0, 1]>, fillcolor="#399de5"] ;
547 -> 573 ;
574 [label=<gini = 0.0<br/>samples = 1<br/>value = [0, 1]>, fillcolor="#399de5"] ;
546 -> 574 ;
575 [label=<X<SUB>437</SUB> &le; 0.5<br/>gini = 0.494<br/>samples = 9<br/>value = [5, 4]>, fillcolor="#fae6d7"] ;
545 -> 575 ;
576 [label=<gini = 0.0<br/>samples = 3<br/>value = [3, 0]>, fillcolor="#e58139"] ;
575 -> 576 ;
577 [label=<X<SUB>629</SUB> &le; 0.5<br/>gini = 0.444<br/>samples = 6<br/>value = [2, 4]>, fillcolor="#9ccef2"] ;
575 -> 577 ;
578 [label=<X<SUB>574</SUB> &le; 0.5<br/>gini = 0.444<br/>samples = 3<br/>value = [2, 1]>, fillcolor="#f2c09c"] ;
577 -> 578 ;
579 [label=<gini = 0.0<br/>samples = 2<br/>value = [2, 0]>, fillcolor="#e58139"] ;
578 -> 579 ;
580 [label=<gini = 0.0<br/>samples = 1<br/>value = [0, 1]>, fillcolor="#399de5"] ;
578 -> 580 ;
581 [label=<gini = 0.0<br/>samples = 3<br/>value = [0, 3]>, fillcolor="#399de5"] ;
577 -> 581 ;
582 [label=<X<SUB>13</SUB> &le; 0.5<br/>gini = 0.49<br/>samples = 7<br/>value = [3, 4]>, fillcolor="#cee6f8"] ;
544 -> 582 ;
583 [label=<gini = 0.0<br/>samples = 4<br/>value = [0, 4]>, fillcolor="#399de5"] ;
582 -> 583 ;
584 [label=<gini = 0.0<br/>samples = 3<br/>value = [3, 0]>, fillcolor="#e58139"] ;
582 -> 584 ;
585 [label=<X<SUB>350</SUB> &le; 0.5<br/>gini = 0.375<br/>samples = 28<br/>value = [21, 7]>, fillcolor="#eeab7b"] ;
509 -> 585 ;
586 [label=<X<SUB>145</SUB> &le; 0.5<br/>gini = 0.269<br/>samples = 25<br/>value = [21, 4]>, fillcolor="#ea995f"] ;
585 -> 586 ;
587 [label=<X<SUB>901</SUB> &le; 0.5<br/>gini = 0.159<br/>samples = 23<br/>value = [21, 2]>, fillcolor="#e78d4c"] ;
586 -> 587 ;
588 [label=<X<SUB>625</SUB> &le; 0.5<br/>gini = 0.087<br/>samples = 22<br/>value = [21, 1]>, fillcolor="#e68742"] ;
587 -> 588 ;
589 [label=<gini = 0.0<br/>samples = 21<br/>value = [21, 0]>, fillcolor="#e58139"] ;
588 -> 589 ;
590 [label=<gini = 0.0<br/>samples = 1<br/>value = [0, 1]>, fillcolor="#399de5"] ;
588 -> 590 ;
591 [label=<gini = 0.0<br/>samples = 1<br/>value = [0, 1]>, fillcolor="#399de5"] ;
587 -> 591 ;
592 [label=<gini = 0.0<br/>samples = 2<br/>value = [0, 2]>, fillcolor="#399de5"] ;
586 -> 592 ;
593 [label=<gini = 0.0<br/>samples = 3<br/>value = [0, 3]>, fillcolor="#399de5"] ;
585 -> 593 ;
594 [label=<X<SUB>24</SUB> &le; 0.5<br/>gini = 0.444<br/>samples = 3<br/>value = [1, 2]>, fillcolor="#9ccef2"] ;
508 -> 594 ;
595 [label=<gini = 0.0<br/>samples = 2<br/>value = [0, 2]>, fillcolor="#399de5"] ;
594 -> 595 ;
596 [label=<gini = 0.0<br/>samples = 1<br/>value = [1, 0]>, fillcolor="#e58139"] ;
594 -> 596 ;
597 [label=<X<SUB>649</SUB> &le; 0.5<br/>gini = 0.366<br/>samples = 58<br/>value = [44, 14]>, fillcolor="#eda978"] ;
507 -> 597 ;
598 [label=<X<SUB>213</SUB> &le; 0.5<br/>gini = 0.236<br/>samples = 44<br/>value = [38, 6]>, fillcolor="#e99558"] ;
597 -> 598 ;
599 [label=<X<SUB>750</SUB> &le; 0.5<br/>gini = 0.064<br/>samples = 30<br/>value = [29, 1]>, fillcolor="#e68540"] ;
598 -> 599 ;
600 [label=<gini = 0.0<br/>samples = 28<br/>value = [28, 0]>, fillcolor="#e58139"] ;
599 -> 600 ;
601 [label=<X<SUB>883</SUB> &le; 0.5<br/>gini = 0.5<br/>samples = 2<br/>value = [1, 1]>, fillcolor="#ffffff"] ;
599 -> 601 ;
602 [label=<gini = 0.0<br/>samples = 1<br/>value = [1, 0]>, fillcolor="#e58139"] ;
601 -> 602 ;
603 [label=<gini = 0.0<br/>samples = 1<br/>value = [0, 1]>, fillcolor="#399de5"] ;
601 -> 603 ;
604 [label=<X<SUB>539</SUB> &le; 0.5<br/>gini = 0.459<br/>samples = 14<br/>value = [9, 5]>, fillcolor="#f3c7a7"] ;
598 -> 604 ;
605 [label=<X<SUB>546</SUB> &le; 0.5<br/>gini = 0.469<br/>samples = 8<br/>value = [3, 5]>, fillcolor="#b0d8f5"] ;
604 -> 605 ;
606 [label=<X<SUB>290</SUB> &le; 0.5<br/>gini = 0.278<br/>samples = 6<br/>value = [1, 5]>, fillcolor="#61b1ea"] ;
605 -> 606 ;
607 [label=<gini = 0.0<br/>samples = 5<br/>value = [0, 5]>, fillcolor="#399de5"] ;
606 -> 607 ;
608 [label=<gini = 0.0<br/>samples = 1<br/>value = [1, 0]>, fillcolor="#e58139"] ;
606 -> 608 ;
609 [label=<gini = 0.0<br/>samples = 2<br/>value = [2, 0]>, fillcolor="#e58139"] ;
605 -> 609 ;
610 [label=<gini = 0.0<br/>samples = 6<br/>value = [6, 0]>, fillcolor="#e58139"] ;
604 -> 610 ;
611 [label=<X<SUB>804</SUB> &le; 0.5<br/>gini = 0.49<br/>samples = 14<br/>value = [6, 8]>, fillcolor="#cee6f8"] ;
597 -> 611 ;
612 [label=<X<SUB>114</SUB> &le; 0.5<br/>gini = 0.397<br/>samples = 11<br/>value = [3, 8]>, fillcolor="#83c2ef"] ;
611 -> 612 ;
613 [label=<X<SUB>947</SUB> &le; 0.5<br/>gini = 0.219<br/>samples = 8<br/>value = [1, 7]>, fillcolor="#55abe9"] ;
612 -> 613 ;
614 [label=<gini = 0.0<br/>samples = 7<br/>value = [0, 7]>, fillcolor="#399de5"] ;
613 -> 614 ;
615 [label=<gini = 0.0<br/>samples = 1<br/>value = [1, 0]>, fillcolor="#e58139"] ;
613 -> 615 ;
616 [label=<X<SUB>405</SUB> &le; 0.5<br/>gini = 0.444<br/>samples = 3<br/>value = [2, 1]>, fillcolor="#f2c09c"] ;
612 -> 616 ;
617 [label=<gini = 0.0<br/>samples = 2<br/>value = [2, 0]>, fillcolor="#e58139"] ;
616 -> 617 ;
618 [label=<gini = 0.0<br/>samples = 1<br/>value = [0, 1]>, fillcolor="#399de5"] ;
616 -> 618 ;
619 [label=<gini = 0.0<br/>samples = 3<br/>value = [3, 0]>, fillcolor="#e58139"] ;
611 -> 619 ;
620 [label=<X<SUB>99</SUB> &le; 0.5<br/>gini = 0.435<br/>samples = 100<br/>value = [68, 32]>, fillcolor="#f1bc96"] ;
506 -> 620 ;
621 [label=<X<SUB>280</SUB> &le; 0.5<br/>gini = 0.378<br/>samples = 87<br/>value = [65, 22]>, fillcolor="#eeac7c"] ;
620 -> 621 ;
622 [label=<X<SUB>907</SUB> &le; 0.5<br/>gini = 0.317<br/>samples = 81<br/>value = [65, 16]>, fillcolor="#eba06a"] ;
621 -> 622 ;
623 [label=<X<SUB>145</SUB> &le; 0.5<br/>gini = 0.278<br/>samples = 78<br/>value = [65, 13]>, fillcolor="#ea9a61"] ;
622 -> 623 ;
624 [label=<X<SUB>910</SUB> &le; 0.5<br/>gini = 0.248<br/>samples = 76<br/>value = [65, 11]>, fillcolor="#e9965b"] ;
623 -> 624 ;
625 [label=<X<SUB>848</SUB> &le; 0.5<br/>gini = 0.182<br/>samples = 69<br/>value = [62, 7]>, fillcolor="#e88f4f"] ;
624 -> 625 ;
626 [label=<X<SUB>469</SUB> &le; 0.5<br/>gini = 0.074<br/>samples = 52<br/>value = [50, 2]>, fillcolor="#e68641"] ;
625 -> 626 ;
627 [label=<X<SUB>799</SUB> &le; 0.5<br/>gini = 0.039<br/>samples = 50<br/>value = [49, 1]>, fillcolor="#e6843d"] ;
626 -> 627 ;
628 [label=<gini = 0.0<br/>samples = 47<br/>value = [47, 0]>, fillcolor="#e58139"] ;
627 -> 628 ;
629 [label=<X<SUB>566</SUB> &le; 0.5<br/>gini = 0.444<br/>samples = 3<br/>value = [2, 1]>, fillcolor="#f2c09c"] ;
627 -> 629 ;
630 [label=<gini = 0.0<br/>samples = 1<br/>value = [0, 1]>, fillcolor="#399de5"] ;
629 -> 630 ;
631 [label=<gini = 0.0<br/>samples = 2<br/>value = [2, 0]>, fillcolor="#e58139"] ;
629 -> 631 ;
632 [label=<X<SUB>640</SUB> &le; 0.5<br/>gini = 0.5<br/>samples = 2<br/>value = [1, 1]>, fillcolor="#ffffff"] ;
626 -> 632 ;
633 [label=<gini = 0.0<br/>samples = 1<br/>value = [0, 1]>, fillcolor="#399de5"] ;
632 -> 633 ;
634 [label=<gini = 0.0<br/>samples = 1<br/>value = [1, 0]>, fillcolor="#e58139"] ;
632 -> 634 ;
635 [label=<X<SUB>602</SUB> &le; 0.5<br/>gini = 0.415<br/>samples = 17<br/>value = [12, 5]>, fillcolor="#f0b58b"] ;
625 -> 635 ;
636 [label=<X<SUB>92</SUB> &le; 0.5<br/>gini = 0.444<br/>samples = 6<br/>value = [2, 4]>, fillcolor="#9ccef2"] ;
635 -> 636 ;
637 [label=<gini = 0.0<br/>samples = 3<br/>value = [0, 3]>, fillcolor="#399de5"] ;
636 -> 637 ;
638 [label=<X<SUB>908</SUB> &le; 0.5<br/>gini = 0.444<br/>samples = 3<br/>value = [2, 1]>, fillcolor="#f2c09c"] ;
636 -> 638 ;
639 [label=<gini = 0.0<br/>samples = 2<br/>value = [2, 0]>, fillcolor="#e58139"] ;
638 -> 639 ;
640 [label=<gini = 0.0<br/>samples = 1<br/>value = [0, 1]>, fillcolor="#399de5"] ;
638 -> 640 ;
641 [label=<X<SUB>842</SUB> &le; 0.5<br/>gini = 0.165<br/>samples = 11<br/>value = [10, 1]>, fillcolor="#e88e4d"] ;
635 -> 641 ;
642 [label=<gini = 0.0<br/>samples = 10<br/>value = [10, 0]>, fillcolor="#e58139"] ;
641 -> 642 ;
643 [label=<gini = 0.0<br/>samples = 1<br/>value = [0, 1]>, fillcolor="#399de5"] ;
641 -> 643 ;
644 [label=<X<SUB>213</SUB> &le; 0.5<br/>gini = 0.49<br/>samples = 7<br/>value = [3, 4]>, fillcolor="#cee6f8"] ;
624 -> 644 ;
645 [label=<gini = 0.0<br/>samples = 2<br/>value = [0, 2]>, fillcolor="#399de5"] ;
644 -> 645 ;
646 [label=<X<SUB>479</SUB> &le; 0.5<br/>gini = 0.48<br/>samples = 5<br/>value = [3, 2]>, fillcolor="#f6d5bd"] ;
644 -> 646 ;
647 [label=<X<SUB>870</SUB> &le; 0.5<br/>gini = 0.375<br/>samples = 4<br/>value = [3, 1]>, fillcolor="#eeab7b"] ;
646 -> 647 ;
648 [label=<gini = 0.0<br/>samples = 2<br/>value = [2, 0]>, fillcolor="#e58139"] ;
647 -> 648 ;
649 [label=<X<SUB>127</SUB> &le; 0.5<br/>gini = 0.5<br/>samples = 2<br/>value = [1, 1]>, fillcolor="#ffffff"] ;
647 -> 649 ;
650 [label=<gini = 0.0<br/>samples = 1<br/>value = [0, 1]>, fillcolor="#399de5"] ;
649 -> 650 ;
651 [label=<gini = 0.0<br/>samples = 1<br/>value = [1, 0]>, fillcolor="#e58139"] ;
649 -> 651 ;
652 [label=<gini = 0.0<br/>samples = 1<br/>value = [0, 1]>, fillcolor="#399de5"] ;
646 -> 652 ;
653 [label=<gini = 0.0<br/>samples = 2<br/>value = [0, 2]>, fillcolor="#399de5"] ;
623 -> 653 ;
654 [label=<gini = 0.0<br/>samples = 3<br/>value = [0, 3]>, fillcolor="#399de5"] ;
622 -> 654 ;
655 [label=<gini = 0.0<br/>samples = 6<br/>value = [0, 6]>, fillcolor="#399de5"] ;
621 -> 655 ;
656 [label=<X<SUB>782</SUB> &le; 0.5<br/>gini = 0.355<br/>samples = 13<br/>value = [3, 10]>, fillcolor="#74baed"] ;
620 -> 656 ;
657 [label=<X<SUB>74</SUB> &le; 0.5<br/>gini = 0.165<br/>samples = 11<br/>value = [1, 10]>, fillcolor="#4da7e8"] ;
656 -> 657 ;
658 [label=<gini = 0.0<br/>samples = 10<br/>value = [0, 10]>, fillcolor="#399de5"] ;
657 -> 658 ;
659 [label=<gini = 0.0<br/>samples = 1<br/>value = [1, 0]>, fillcolor="#e58139"] ;
657 -> 659 ;
660 [label=<gini = 0.0<br/>samples = 2<br/>value = [2, 0]>, fillcolor="#e58139"] ;
656 -> 660 ;
661 [label=<X<SUB>482</SUB> &le; 0.5<br/>gini = 0.5<br/>samples = 216<br/>value = [107, 109]>, fillcolor="#fbfdff"] ;
505 -> 661 ;
662 [label=<X<SUB>15</SUB> &le; 0.5<br/>gini = 0.489<br/>samples = 186<br/>value = [79, 107]>, fillcolor="#cbe5f8"] ;
661 -> 662 ;
663 [label=<X<SUB>784</SUB> &le; 0.5<br/>gini = 0.472<br/>samples = 170<br/>value = [65, 105]>, fillcolor="#b4daf5"] ;
662 -> 663 ;
664 [label=<X<SUB>56</SUB> &le; 0.5<br/>gini = 0.458<br/>samples = 163<br/>value = [58, 105]>, fillcolor="#a6d3f3"] ;
663 -> 664 ;
665 [label=<X<SUB>213</SUB> &le; 0.5<br/>gini = 0.442<br/>samples = 155<br/>value = [51, 104]>, fillcolor="#9acdf2"] ;
664 -> 665 ;
666 [label=<X<SUB>85</SUB> &le; 0.5<br/>gini = 0.316<br/>samples = 66<br/>value = [13, 53]>, fillcolor="#6ab5eb"] ;
665 -> 666 ;
667 [label=<X<SUB>737</SUB> &le; 0.5<br/>gini = 0.267<br/>samples = 63<br/>value = [10, 53]>, fillcolor="#5eafea"] ;
666 -> 667 ;
668 [label=<X<SUB>158</SUB> &le; 0.5<br/>gini = 0.228<br/>samples = 61<br/>value = [8, 53]>, fillcolor="#57ace9"] ;
667 -> 668 ;
669 [label=<X<SUB>1007</SUB> &le; 0.5<br/>gini = 0.183<br/>samples = 59<br/>value = [6, 53]>, fillcolor="#4fa8e8"] ;
668 -> 669 ;
670 [label=<X<SUB>900</SUB> &le; 0.5<br/>gini = 0.133<br/>samples = 56<br/>value = [4, 52]>, fillcolor="#48a5e7"] ;
669 -> 670 ;
671 [label=<X<SUB>898</SUB> &le; 0.5<br/>gini = 0.103<br/>samples = 55<br/>value = [3, 52]>, fillcolor="#44a3e6"] ;
670 -> 671 ;
672 [label=<X<SUB>761</SUB> &le; 0.5<br/>gini = 0.071<br/>samples = 54<br/>value = [2, 52]>, fillcolor="#41a1e6"] ;
671 -> 672 ;
673 [label=<X<SUB>741</SUB> &le; 0.5<br/>gini = 0.037<br/>samples = 53<br/>value = [1, 52]>, fillcolor="#3d9fe6"] ;
672 -> 673 ;
674 [label=<gini = 0.0<br/>samples = 52<br/>value = [0, 52]>, fillcolor="#399de5"] ;
673 -> 674 ;
675 [label=<gini = 0.0<br/>samples = 1<br/>value = [1, 0]>, fillcolor="#e58139"] ;
673 -> 675 ;
676 [label=<gini = 0.0<br/>samples = 1<br/>value = [1, 0]>, fillcolor="#e58139"] ;
672 -> 676 ;
677 [label=<gini = 0.0<br/>samples = 1<br/>value = [1, 0]>, fillcolor="#e58139"] ;
671 -> 677 ;
678 [label=<gini = 0.0<br/>samples = 1<br/>value = [1, 0]>, fillcolor="#e58139"] ;
670 -> 678 ;
679 [label=<X<SUB>302</SUB> &le; 0.5<br/>gini = 0.444<br/>samples = 3<br/>value = [2, 1]>, fillcolor="#f2c09c"] ;
669 -> 679 ;
680 [label=<gini = 0.0<br/>samples = 2<br/>value = [2, 0]>, fillcolor="#e58139"] ;
679 -> 680 ;
681 [label=<gini = 0.0<br/>samples = 1<br/>value = [0, 1]>, fillcolor="#399de5"] ;
679 -> 681 ;
682 [label=<gini = 0.0<br/>samples = 2<br/>value = [2, 0]>, fillcolor="#e58139"] ;
668 -> 682 ;
683 [label=<gini = 0.0<br/>samples = 2<br/>value = [2, 0]>, fillcolor="#e58139"] ;
667 -> 683 ;
684 [label=<gini = 0.0<br/>samples = 3<br/>value = [3, 0]>, fillcolor="#e58139"] ;
666 -> 684 ;
685 [label=<X<SUB>963</SUB> &le; 0.5<br/>gini = 0.489<br/>samples = 89<br/>value = [38, 51]>, fillcolor="#cde6f8"] ;
665 -> 685 ;
686 [label=<X<SUB>302</SUB> &le; 0.5<br/>gini = 0.474<br/>samples = 83<br/>value = [32, 51]>, fillcolor="#b5daf5"] ;
685 -> 686 ;
687 [label=<X<SUB>316</SUB> &le; 0.5<br/>gini = 0.492<br/>samples = 73<br/>value = [32, 41]>, fillcolor="#d4e9f9"] ;
686 -> 687 ;
688 [label=<gini = 0.0<br/>samples = 5<br/>value = [5, 0]>, fillcolor="#e58139"] ;
687 -> 688 ;
689 [label=<X<SUB>335</SUB> &le; 0.5<br/>gini = 0.479<br/>samples = 68<br/>value = [27, 41]>, fillcolor="#bbdef6"] ;
687 -> 689 ;
690 [label=<X<SUB>145</SUB> &le; 0.5<br/>gini = 0.493<br/>samples = 61<br/>value = [27, 34]>, fillcolor="#d6ebfa"] ;
689 -> 690 ;
691 [label=<X<SUB>95</SUB> &le; 0.5<br/>gini = 0.5<br/>samples = 51<br/>value = [26, 25]>, fillcolor="#fefaf7"] ;
690 -> 691 ;
692 [label=<gini = 0.0<br/>samples = 4<br/>value = [0, 4]>, fillcolor="#399de5"] ;
691 -> 692 ;
693 [label=<X<SUB>910</SUB> &le; 0.5<br/>gini = 0.494<br/>samples = 47<br/>value = [26, 21]>, fillcolor="#fae7d9"] ;
691 -> 693 ;
694 [label=<X<SUB>974</SUB> &le; 0.5<br/>gini = 0.483<br/>samples = 44<br/>value = [26, 18]>, fillcolor="#f7d8c2"] ;
693 -> 694 ;
695 [label=<X<SUB>178</SUB> &le; 0.5<br/>gini = 0.464<br/>samples = 41<br/>value = [26, 15]>, fillcolor="#f4caab"] ;
694 -> 695 ;
696 [label=<X<SUB>920</SUB> &le; 0.5<br/>gini = 0.497<br/>samples = 28<br/>value = [15, 13]>, fillcolor="#fceee5"] ;
695 -> 696 ;
697 [label=<X<SUB>959</SUB> &le; 0.5<br/>gini = 0.499<br/>samples = 25<br/>value = [12, 13]>, fillcolor="#f0f7fd"] ;
696 -> 697 ;
698 [label=<X<SUB>842</SUB> &le; 0.5<br/>gini = 0.496<br/>samples = 22<br/>value = [12, 10]>, fillcolor="#fbeade"] ;
697 -> 698 ;
699 [label=<X<SUB>755</SUB> &le; 0.5<br/>gini = 0.457<br/>samples = 17<br/>value = [11, 6]>, fillcolor="#f3c6a5"] ;
698 -> 699 ;
700 [label=<X<SUB>668</SUB> &le; 0.5<br/>gini = 0.391<br/>samples = 15<br/>value = [11, 4]>, fillcolor="#eeaf81"] ;
699 -> 700 ;
701 [label=<X<SUB>350</SUB> &le; 0.5<br/>gini = 0.26<br/>samples = 13<br/>value = [11, 2]>, fillcolor="#ea985d"] ;
700 -> 701 ;
702 [label=<X<SUB>22</SUB> &le; 0.5<br/>gini = 0.153<br/>samples = 12<br/>value = [11, 1]>, fillcolor="#e78c4b"] ;
701 -> 702 ;
703 [label=<gini = 0.0<br/>samples = 11<br/>value = [11, 0]>, fillcolor="#e58139"] ;
702 -> 703 ;
704 [label=<gini = 0.0<br/>samples = 1<br/>value = [0, 1]>, fillcolor="#399de5"] ;
702 -> 704 ;
705 [label=<gini = 0.0<br/>samples = 1<br/>value = [0, 1]>, fillcolor="#399de5"] ;
701 -> 705 ;
706 [label=<gini = 0.0<br/>samples = 2<br/>value = [0, 2]>, fillcolor="#399de5"] ;
700 -> 706 ;
707 [label=<gini = 0.0<br/>samples = 2<br/>value = [0, 2]>, fillcolor="#399de5"] ;
699 -> 707 ;
708 [label=<X<SUB>617</SUB> &le; 0.5<br/>gini = 0.32<br/>samples = 5<br/>value = [1, 4]>, fillcolor="#6ab6ec"] ;
698 -> 708 ;
709 [label=<gini = 0.0<br/>samples = 4<br/>value = [0, 4]>, fillcolor="#399de5"] ;
708 -> 709 ;
710 [label=<gini = 0.0<br/>samples = 1<br/>value = [1, 0]>, fillcolor="#e58139"] ;
708 -> 710 ;
711 [label=<gini = 0.0<br/>samples = 3<br/>value = [0, 3]>, fillcolor="#399de5"] ;
697 -> 711 ;
712 [label=<gini = 0.0<br/>samples = 3<br/>value = [3, 0]>, fillcolor="#e58139"] ;
696 -> 712 ;
713 [label=<X<SUB>503</SUB> &le; 0.5<br/>gini = 0.26<br/>samples = 13<br/>value = [11, 2]>, fillcolor="#ea985d"] ;
695 -> 713 ;
714 [label=<X<SUB>829</SUB> &le; 0.5<br/>gini = 0.153<br/>samples = 12<br/>value = [11, 1]>, fillcolor="#e78c4b"] ;
713 -> 714 ;
715 [label=<gini = 0.0<br/>samples = 11<br/>value = [11, 0]>, fillcolor="#e58139"] ;
714 -> 715 ;
716 [label=<gini = 0.0<br/>samples = 1<br/>value = [0, 1]>, fillcolor="#399de5"] ;
714 -> 716 ;
717 [label=<gini = 0.0<br/>samples = 1<br/>value = [0, 1]>, fillcolor="#399de5"] ;
713 -> 717 ;
718 [label=<gini = 0.0<br/>samples = 3<br/>value = [0, 3]>, fillcolor="#399de5"] ;
694 -> 718 ;
719 [label=<gini = 0.0<br/>samples = 3<br/>value = [0, 3]>, fillcolor="#399de5"] ;
693 -> 719 ;
720 [label=<X<SUB>458</SUB> &le; 0.5<br/>gini = 0.18<br/>samples = 10<br/>value = [1, 9]>, fillcolor="#4fa8e8"] ;
690 -> 720 ;
721 [label=<gini = 0.0<br/>samples = 8<br/>value = [0, 8]>, fillcolor="#399de5"] ;
720 -> 721 ;
722 [label=<X<SUB>198</SUB> &le; 0.5<br/>gini = 0.5<br/>samples = 2<br/>value = [1, 1]>, fillcolor="#ffffff"] ;
720 -> 722 ;
723 [label=<gini = 0.0<br/>samples = 1<br/>value = [1, 0]>, fillcolor="#e58139"] ;
722 -> 723 ;
724 [label=<gini = 0.0<br/>samples = 1<br/>value = [0, 1]>, fillcolor="#399de5"] ;
722 -> 724 ;
725 [label=<gini = 0.0<br/>samples = 7<br/>value = [0, 7]>, fillcolor="#399de5"] ;
689 -> 725 ;
726 [label=<gini = 0.0<br/>samples = 10<br/>value = [0, 10]>, fillcolor="#399de5"] ;
686 -> 726 ;
727 [label=<gini = 0.0<br/>samples = 6<br/>value = [6, 0]>, fillcolor="#e58139"] ;
685 -> 727 ;
728 [label=<X<SUB>433</SUB> &le; 0.5<br/>gini = 0.219<br/>samples = 8<br/>value = [7, 1]>, fillcolor="#e99355"] ;
664 -> 728 ;
729 [label=<gini = 0.0<br/>samples = 7<br/>value = [7, 0]>, fillcolor="#e58139"] ;
728 -> 729 ;
730 [label=<gini = 0.0<br/>samples = 1<br/>value = [0, 1]>, fillcolor="#399de5"] ;
728 -> 730 ;
731 [label=<gini = 0.0<br/>samples = 7<br/>value = [7, 0]>, fillcolor="#e58139"] ;
663 -> 731 ;
732 [label=<X<SUB>322</SUB> &le; 0.5<br/>gini = 0.219<br/>samples = 16<br/>value = [14, 2]>, fillcolor="#e99355"] ;
662 -> 732 ;
733 [label=<gini = 0.0<br/>samples = 13<br/>value = [13, 0]>, fillcolor="#e58139"] ;
732 -> 733 ;
734 [label=<X<SUB>632</SUB> &le; 0.5<br/>gini = 0.444<br/>samples = 3<br/>value = [1, 2]>, fillcolor="#9ccef2"] ;
732 -> 734 ;
735 [label=<gini = 0.0<br/>samples = 2<br/>value = [0, 2]>, fillcolor="#399de5"] ;
734 -> 735 ;
736 [label=<gini = 0.0<br/>samples = 1<br/>value = [1, 0]>, fillcolor="#e58139"] ;
734 -> 736 ;
737 [label=<X<SUB>383</SUB> &le; 0.5<br/>gini = 0.124<br/>samples = 30<br/>value = [28, 2]>, fillcolor="#e78a47"] ;
661 -> 737 ;
738 [label=<gini = 0.0<br/>samples = 1<br/>value = [0, 1]>, fillcolor="#399de5"] ;
737 -> 738 ;
739 [label=<X<SUB>232</SUB> &le; 0.5<br/>gini = 0.067<br/>samples = 29<br/>value = [28, 1]>, fillcolor="#e68640"] ;
737 -> 739 ;
740 [label=<gini = 0.0<br/>samples = 27<br/>value = [27, 0]>, fillcolor="#e58139"] ;
739 -> 740 ;
741 [label=<X<SUB>650</SUB> &le; 0.5<br/>gini = 0.5<br/>samples = 2<br/>value = [1, 1]>, fillcolor="#ffffff"] ;
739 -> 741 ;
742 [label=<gini = 0.0<br/>samples = 1<br/>value = [1, 0]>, fillcolor="#e58139"] ;
741 -> 742 ;
743 [label=<gini = 0.0<br/>samples = 1<br/>value = [0, 1]>, fillcolor="#399de5"] ;
741 -> 743 ;
744 [label=<X<SUB>379</SUB> &le; 0.5<br/>gini = 0.433<br/>samples = 98<br/>value = [31, 67]>, fillcolor="#95caf1"] ;
504 -> 744 ;
745 [label=<X<SUB>649</SUB> &le; 0.5<br/>gini = 0.287<br/>samples = 75<br/>value = [13, 62]>, fillcolor="#63b2ea"] ;
744 -> 745 ;
746 [label=<X<SUB>120</SUB> &le; 0.5<br/>gini = 0.227<br/>samples = 69<br/>value = [9, 60]>, fillcolor="#57ace9"] ;
745 -> 746 ;
747 [label=<X<SUB>426</SUB> &le; 0.5<br/>gini = 0.187<br/>samples = 67<br/>value = [7, 60]>, fillcolor="#50a8e8"] ;
746 -> 747 ;
748 [label=<X<SUB>563</SUB> &le; 0.5<br/>gini = 0.142<br/>samples = 65<br/>value = [5, 60]>, fillcolor="#49a5e7"] ;
747 -> 748 ;
749 [label=<X<SUB>135</SUB> &le; 0.5<br/>gini = 0.092<br/>samples = 62<br/>value = [3, 59]>, fillcolor="#43a2e6"] ;
748 -> 749 ;
750 [label=<X<SUB>230</SUB> &le; 0.5<br/>gini = 0.063<br/>samples = 61<br/>value = [2, 59]>, fillcolor="#40a0e6"] ;
749 -> 750 ;
751 [label=<X<SUB>336</SUB> &le; 0.5<br/>gini = 0.033<br/>samples = 60<br/>value = [1, 59]>, fillcolor="#3c9fe5"] ;
750 -> 751 ;
752 [label=<gini = 0.0<br/>samples = 59<br/>value = [0, 59]>, fillcolor="#399de5"] ;
751 -> 752 ;
753 [label=<gini = 0.0<br/>samples = 1<br/>value = [1, 0]>, fillcolor="#e58139"] ;
751 -> 753 ;
754 [label=<gini = 0.0<br/>samples = 1<br/>value = [1, 0]>, fillcolor="#e58139"] ;
750 -> 754 ;
755 [label=<gini = 0.0<br/>samples = 1<br/>value = [1, 0]>, fillcolor="#e58139"] ;
749 -> 755 ;
756 [label=<X<SUB>950</SUB> &le; 0.5<br/>gini = 0.444<br/>samples = 3<br/>value = [2, 1]>, fillcolor="#f2c09c"] ;
748 -> 756 ;
757 [label=<gini = 0.0<br/>samples = 2<br/>value = [2, 0]>, fillcolor="#e58139"] ;
756 -> 757 ;
758 [label=<gini = 0.0<br/>samples = 1<br/>value = [0, 1]>, fillcolor="#399de5"] ;
756 -> 758 ;
759 [label=<gini = 0.0<br/>samples = 2<br/>value = [2, 0]>, fillcolor="#e58139"] ;
747 -> 759 ;
760 [label=<gini = 0.0<br/>samples = 2<br/>value = [2, 0]>, fillcolor="#e58139"] ;
746 -> 760 ;
761 [label=<X<SUB>786</SUB> &le; 0.5<br/>gini = 0.444<br/>samples = 6<br/>value = [4, 2]>, fillcolor="#f2c09c"] ;
745 -> 761 ;
762 [label=<X<SUB>840</SUB> &le; 0.5<br/>gini = 0.444<br/>samples = 3<br/>value = [1, 2]>, fillcolor="#9ccef2"] ;
761 -> 762 ;
763 [label=<gini = 0.0<br/>samples = 2<br/>value = [0, 2]>, fillcolor="#399de5"] ;
762 -> 763 ;
764 [label=<gini = 0.0<br/>samples = 1<br/>value = [1, 0]>, fillcolor="#e58139"] ;
762 -> 764 ;
765 [label=<gini = 0.0<br/>samples = 3<br/>value = [3, 0]>, fillcolor="#e58139"] ;
761 -> 765 ;
766 [label=<X<SUB>299</SUB> &le; 0.5<br/>gini = 0.34<br/>samples = 23<br/>value = [18, 5]>, fillcolor="#eca470"] ;
744 -> 766 ;
767 [label=<X<SUB>172</SUB> &le; 0.5<br/>gini = 0.245<br/>samples = 21<br/>value = [18, 3]>, fillcolor="#e9965a"] ;
766 -> 767 ;
768 [label=<X<SUB>323</SUB> &le; 0.5<br/>gini = 0.18<br/>samples = 20<br/>value = [18, 2]>, fillcolor="#e88f4f"] ;
767 -> 768 ;
769 [label=<gini = 0.0<br/>samples = 13<br/>value = [13, 0]>, fillcolor="#e58139"] ;
768 -> 769 ;
770 [label=<X<SUB>342</SUB> &le; 0.5<br/>gini = 0.408<br/>samples = 7<br/>value = [5, 2]>, fillcolor="#efb388"] ;
768 -> 770 ;
771 [label=<X<SUB>920</SUB> &le; 0.5<br/>gini = 0.444<br/>samples = 3<br/>value = [1, 2]>, fillcolor="#9ccef2"] ;
770 -> 771 ;
772 [label=<gini = 0.0<br/>samples = 2<br/>value = [0, 2]>, fillcolor="#399de5"] ;
771 -> 772 ;
773 [label=<gini = 0.0<br/>samples = 1<br/>value = [1, 0]>, fillcolor="#e58139"] ;
771 -> 773 ;
774 [label=<gini = 0.0<br/>samples = 4<br/>value = [4, 0]>, fillcolor="#e58139"] ;
770 -> 774 ;
775 [label=<gini = 0.0<br/>samples = 1<br/>value = [0, 1]>, fillcolor="#399de5"] ;
767 -> 775 ;
776 [label=<gini = 0.0<br/>samples = 2<br/>value = [0, 2]>, fillcolor="#399de5"] ;
766 -> 776 ;
}