digraph Tree {
node [shape=box, style="filled, rounded", color="black", fontname=helvetica] ;
edge [fontname=helvetica] ;
0 [label=<X<SUB>6</SUB> &le; 0.226<br/>entropy = 0.908<br/>samples = 269<br/>value = [182, 87]>, fillcolor="#f1bd98"] ;
1 [label=<X<SUB>3</SUB> &le; 0.23<br/>entropy = 0.614<br/>samples = 66<br/>value = [10, 56]>, fillcolor="#5caeea"] ;
0 -> 1 [labeldistance=2.5, labelangle=45, headlabel="True"] ;
2 [label=<entropy = 0.0<br/>samples = 20<br/>value = [0, 20]>, fillcolor="#399de5"] ;
1 -> 2 ;
3 [label=<X<SUB>5</SUB> &le; 0.586<br/>entropy = 0.755<br/>samples = 46<br/>value = [10, 36]>, fillcolor="#70b8ec"] ;
1 -> 3 ;
4 [label=<entropy = 0.0<br/>samples = 11<br/>value = [0, 11]>, fillcolor="#399de5"] ;
3 -> 4 ;
5 [label=<X<SUB>3</SUB> &le; 0.242<br/>entropy = 0.863<br/>samples = 35<br/>value = [10, 25]>, fillcolor="#88c4ef"] ;
3 -> 5 ;
6 [label=<entropy = 0.0<br/>samples = 3<br/>value = [3, 0]>, fillcolor="#e58139"] ;
5 -> 6 ;
7 [label=<X<SUB>0</SUB> &le; 0.482<br/>entropy = 0.758<br/>samples = 32<br/>value = [7, 25]>, fillcolor="#70b8ec"] ;
5 -> 7 ;
8 [label=<entropy = 0.934<br/>samples = 20<br/>value = [7, 13]>, fillcolor="#a4d2f3"] ;
7 -> 8 ;
9 [label=<entropy = 0.0<br/>samples = 12<br/>value = [0, 12]>, fillcolor="#399de5"] ;
7 -> 9 ;
10 [label=<X<SUB>4</SUB> &le; 0.107<br/>entropy = 0.617<br/>samples = 203<br/>value = [172, 31]>, fillcolor="#ea985d"] ;
0 -> 10 [labeldistance=2.5, labelangle=-45, headlabel="False"] ;
11 [label=<X<SUB>2</SUB> &le; 0.205<br/>entropy = 0.36<br/>samples = 161<br/>value = [150, 11]>, fillcolor="#e78a48"] ;
10 -> 11 ;
12 [label=<X<SUB>6</SUB> &le; 0.256<br/>entropy = 0.9<br/>samples = 19<br/>value = [13, 6]>, fillcolor="#f1bb94"] ;
11 -> 12 ;
13 [label=<entropy = 0.0<br/>samples = 2<br/>value = [0, 2]>, fillcolor="#399de5"] ;
12 -> 13 ;
14 [label=<X<SUB>6</SUB> &le; 0.512<br/>entropy = 0.787<br/>samples = 17<br/>value = [13, 4]>, fillcolor="#eda876"] ;
12 -> 14 ;
15 [label=<entropy = 0.0<br/>samples = 7<br/>value = [7, 0]>, fillcolor="#e58139"] ;
14 -> 15 ;
16 [label=<entropy = 0.971<br/>samples = 10<br/>value = [6, 4]>, fillcolor="#f6d5bd"] ;
14 -> 16 ;
17 [label=<X<SUB>0</SUB> &le; 0.7<br/>entropy = 0.22<br/>samples = 142<br/>value = [137, 5]>, fillcolor="#e68640"] ;
11 -> 17 ;
18 [label=<X<SUB>1</SUB> &le; 0.291<br/>entropy = 0.153<br/>samples = 136<br/>value = [133, 3]>, fillcolor="#e6843d"] ;
17 -> 18 ;
19 [label=<entropy = 0.066<br/>samples = 128<br/>value = [127, 1]>, fillcolor="#e5823b"] ;
18 -> 19 ;
20 [label=<entropy = 0.811<br/>samples = 8<br/>value = [6, 2]>, fillcolor="#eeab7b"] ;
18 -> 20 ;
21 [label=<X<SUB>5</SUB> &le; 0.629<br/>entropy = 0.918<br/>samples = 6<br/>value = [4, 2]>, fillcolor="#f2c09c"] ;
17 -> 21 ;
22 [label=<entropy = 0.918<br/>samples = 3<br/>value = [1, 2]>, fillcolor="#9ccef2"] ;
21 -> 22 ;
23 [label=<entropy = 0.0<br/>samples = 3<br/>value = [3, 0]>, fillcolor="#e58139"] ;
21 -> 23 ;
24 [label=<X<SUB>2</SUB> &le; 0.129<br/>entropy = 0.998<br/>samples = 42<br/>value = [22, 20]>, fillcolor="#fdf4ed"] ;
10 -> 24 ;
25 [label=<entropy = 0.0<br/>samples = 5<br/>value = [0, 5]>, fillcolor="#399de5"] ;
24 -> 25 ;
26 [label=<X<SUB>6</SUB> &le; 0.733<br/>entropy = 0.974<br/>samples = 37<br/>value = [22, 15]>, fillcolor="#f7d7c0"] ;
24 -> 26 ;
27 [label=<X<SUB>1</SUB> &le; 0.006<br/>entropy = 1.0<br/>samples = 30<br/>value = [15, 15]>, fillcolor="#ffffff"] ;
26 -> 27 ;
28 [label=<entropy = 0.0<br/>samples = 6<br/>value = [6, 0]>, fillcolor="#e58139"] ;
27 -> 28 ;
29 [label=<entropy = 0.954<br/>samples = 24<br/>value = [9, 15]>, fillcolor="#b0d8f5"] ;
27 -> 29 ;
30 [label=<entropy = 0.0<br/>samples = 7<br/>value = [7, 0]>, fillcolor="#e58139"] ;
26 -> 30 ;
}