digraph Tree {
node [shape=box, style="filled, rounded", color="black", fontname=helvetica] ;
edge [fontname=helvetica] ;
0 [label=<X<SUB>6</SUB> &le; 0.247<br/>gini = 0.438<br/>samples = 269<br/>value = [182, 87]>, fillcolor="#f1bd98"] ;
1 [label=<X<SUB>5</SUB> &le; 0.671<br/>gini = 0.265<br/>samples = 70<br/>value = [11, 59]>, fillcolor="#5eafea"] ;
0 -> 1 [labeldistance=2.5, labelangle=45, headlabel="True"] ;
2 [label=<gini = 0.102<br/>samples = 37<br/>value = [2, 35]>, fillcolor="#44a3e6"] ;
1 -> 2 ;
3 [label=<X<SUB>6</SUB> &le; 0.158<br/>gini = 0.397<br/>samples = 33<br/>value = [9, 24]>, fillcolor="#83c2ef"] ;
1 -> 3 ;
4 [label=<X<SUB>1</SUB> &le; 0.006<br/>gini = 0.236<br/>samples = 22<br/>value = [3, 19]>, fillcolor="#58ace9"] ;
3 -> 4 ;
5 [label=<gini = 0.0<br/>samples = 1<br/>value = [1, 0]>, fillcolor="#e58139"] ;
4 -> 5 ;
6 [label=<gini = 0.172<br/>samples = 21<br/>value = [2, 19]>, fillcolor="#4ea7e8"] ;
4 -> 6 ;
7 [label=<X<SUB>2</SUB> &le; 0.242<br/>gini = 0.496<br/>samples = 11<br/>value = [6, 5]>, fillcolor="#fbeade"] ;
3 -> 7 ;
8 [label=<gini = 0.0<br/>samples = 4<br/>value = [0, 4]>, fillcolor="#399de5"] ;
7 -> 8 ;
9 [label=<X<SUB>3</SUB> &le; 0.43<br/>gini = 0.245<br/>samples = 7<br/>value = [6, 1]>, fillcolor="#e9965a"] ;
7 -> 9 ;
10 [label=<gini = 0.0<br/>samples = 6<br/>value = [6, 0]>, fillcolor="#e58139"] ;
9 -> 10 ;
11 [label=<gini = 0.0<br/>samples = 1<br/>value = [0, 1]>, fillcolor="#399de5"] ;
9 -> 11 ;
12 [label=<X<SUB>4</SUB> &le; 0.118<br/>gini = 0.242<br/>samples = 199<br/>value = [171, 28]>, fillcolor="#e99659"] ;
0 -> 12 [labeldistance=2.5, labelangle=-45, headlabel="False"] ;
13 [label=<X<SUB>2</SUB> &le; 0.205<br/>gini = 0.145<br/>samples = 165<br/>value = [152, 13]>, fillcolor="#e78c4a"] ;
12 -> 13 ;
14 [label=<X<SUB>0</SUB> &le; 0.227<br/>gini = 0.432<br/>samples = 19<br/>value = [13, 6]>, fillcolor="#f1bb94"] ;
13 -> 14 ;
15 [label=<gini = 0.0<br/>samples = 5<br/>value = [5, 0]>, fillcolor="#e58139"] ;
14 -> 15 ;
16 [label=<X<SUB>6</SUB> &le; 0.735<br/>gini = 0.49<br/>samples = 14<br/>value = [8, 6]>, fillcolor="#f8e0ce"] ;
14 -> 16 ;
17 [label=<gini = 0.444<br/>samples = 12<br/>value = [8, 4]>, fillcolor="#f2c09c"] ;
16 -> 17 ;
18 [label=<gini = 0.0<br/>samples = 2<br/>value = [0, 2]>, fillcolor="#399de5"] ;
16 -> 18 ;
19 [label=<X<SUB>0</SUB> &le; 0.709<br/>gini = 0.091<br/>samples = 146<br/>value = [139, 7]>, fillcolor="#e68743"] ;
13 -> 19 ;
20 [label=<gini = 0.056<br/>samples = 139<br/>value = [135, 4]>, fillcolor="#e6853f"] ;
19 -> 20 ;
21 [label=<X<SUB>5</SUB> &le; 0.643<br/>gini = 0.49<br/>samples = 7<br/>value = [4, 3]>, fillcolor="#f8e0ce"] ;
19 -> 21 ;
22 [label=<X<SUB>7</SUB> &le; 0.5<br/>gini = 0.375<br/>samples = 4<br/>value = [1, 3]>, fillcolor="#7bbeee"] ;
21 -> 22 ;
23 [label=<gini = 0.0<br/>samples = 3<br/>value = [0, 3]>, fillcolor="#399de5"] ;
22 -> 23 ;
24 [label=<gini = 0.0<br/>samples = 1<br/>value = [1, 0]>, fillcolor="#e58139"] ;
22 -> 24 ;
25 [label=<gini = 0.0<br/>samples = 3<br/>value = [3, 0]>, fillcolor="#e58139"] ;
21 -> 25 ;
26 [label=<X<SUB>2</SUB> &le; 0.129<br/>gini = 0.493<br/>samples = 34<br/>value = [19, 15]>, fillcolor="#fae4d5"] ;
12 -> 26 ;
27 [label=<gini = 0.0<br/>samples = 5<br/>value = [0, 5]>, fillcolor="#399de5"] ;
26 -> 27 ;
28 [label=<X<SUB>6</SUB> &le; 0.733<br/>gini = 0.452<br/>samples = 29<br/>value = [19, 10]>, fillcolor="#f3c3a1"] ;
26 -> 28 ;
29 [label=<X<SUB>1</SUB> &le; 0.008<br/>gini = 0.5<br/>samples = 20<br/>value = [10, 10]>, fillcolor="#ffffff"] ;
28 -> 29 ;
30 [label=<gini = 0.0<br/>samples = 4<br/>value = [4, 0]>, fillcolor="#e58139"] ;
29 -> 30 ;
31 [label=<X<SUB>9</SUB> &le; 0.5<br/>gini = 0.469<br/>samples = 16<br/>value = [6, 10]>, fillcolor="#b0d8f5"] ;
29 -> 31 ;
32 [label=<X<SUB>3</SUB> &le; 0.244<br/>gini = 0.496<br/>samples = 11<br/>value = [6, 5]>, fillcolor="#fbeade"] ;
31 -> 32 ;
33 [label=<X<SUB>8</SUB> &le; 0.5<br/>gini = 0.32<br/>samples = 5<br/>value = [1, 4]>, fillcolor="#6ab6ec"] ;
32 -> 33 ;
34 [label=<gini = 0.0<br/>samples = 4<br/>value = [0, 4]>, fillcolor="#399de5"] ;
33 -> 34 ;
35 [label=<gini = 0.0<br/>samples = 1<br/>value = [1, 0]>, fillcolor="#e58139"] ;
33 -> 35 ;
36 [label=<X<SUB>1</SUB> &le; 0.195<br/>gini = 0.278<br/>samples = 6<br/>value = [5, 1]>, fillcolor="#ea9a61"] ;
32 -> 36 ;
37 [label=<gini = 0.0<br/>samples = 5<br/>value = [5, 0]>, fillcolor="#e58139"] ;
36 -> 37 ;
38 [label=<gini = 0.0<br/>samples = 1<br/>value = [0, 1]>, fillcolor="#399de5"] ;
36 -> 38 ;
39 [label=<gini = 0.0<br/>samples = 5<br/>value = [0, 5]>, fillcolor="#399de5"] ;
31 -> 39 ;
40 [label=<gini = 0.0<br/>samples = 9<br/>value = [9, 0]>, fillcolor="#e58139"] ;
28 -> 40 ;
}