digraph Tree {
node [shape=box, style="filled, rounded", color="black", fontname=helvetica] ;
edge [fontname=helvetica] ;
0 [label=<X<SUB>6</SUB> &le; 0.226<br/>entropy = 0.904<br/>samples = 269<br/>value = [183, 86]>, fillcolor="#f1bc96"] ;
1 [label=<entropy = 0.614<br/>samples = 66<br/>value = [10, 56]>, fillcolor="#5caeea"] ;
0 -> 1 [labeldistance=2.5, labelangle=45, headlabel="True"] ;
2 [label=<X<SUB>4</SUB> &le; 0.107<br/>entropy = 0.604<br/>samples = 203<br/>value = [173, 30]>, fillcolor="#ea975b"] ;
0 -> 2 [labeldistance=2.5, labelangle=-45, headlabel="False"] ;
3 [label=<entropy = 0.356<br/>samples = 163<br/>value = [152, 11]>, fillcolor="#e78a47"] ;
2 -> 3 ;
4 [label=<entropy = 0.998<br/>samples = 40<br/>value = [21, 19]>, fillcolor="#fdf3ec"] ;
2 -> 4 ;
}