digraph Tree {
node [shape=box, style="filled, rounded", color="black", fontname=helvetica] ;
edge [fontname=helvetica] ;
0 [label=<X<SUB>6</SUB> &le; 0.247<br/>entropy = 0.907<br/>samples = 270<br/>value = [183, 87]>, fillcolor="#f1bd97"] ;
1 [label=<X<SUB>5</SUB> &le; 0.671<br/>entropy = 0.692<br/>samples = 70<br/>value = [13, 57]>, fillcolor="#66b3eb"] ;
0 -> 1 [labeldistance=2.5, labelangle=45, headlabel="True"] ;
2 [label=<X<SUB>2</SUB> &le; 0.508<br/>entropy = 0.31<br/>samples = 36<br/>value = [2, 34]>, fillcolor="#45a3e7"] ;
1 -> 2 ;
3 [label=<entropy = 0.0<br/>samples = 29<br/>value = [0, 29]>, fillcolor="#399de5"] ;
2 -> 3 ;
4 [label=<X<SUB>7</SUB> &le; 0.5<br/>entropy = 0.863<br/>samples = 7<br/>value = [2, 5]>, fillcolor="#88c4ef"] ;
2 -> 4 ;
5 [label=<entropy = 0.0<br/>samples = 2<br/>value = [2, 0]>, fillcolor="#e58139"] ;
4 -> 5 ;
6 [label=<entropy = 0.0<br/>samples = 5<br/>value = [0, 5]>, fillcolor="#399de5"] ;
4 -> 6 ;
7 [label=<X<SUB>6</SUB> &le; 0.158<br/>entropy = 0.908<br/>samples = 34<br/>value = [11, 23]>, fillcolor="#98ccf1"] ;
1 -> 7 ;
8 [label=<X<SUB>1</SUB> &le; 0.008<br/>entropy = 0.65<br/>samples = 24<br/>value = [4, 20]>, fillcolor="#61b1ea"] ;
7 -> 8 ;
9 [label=<entropy = 0.0<br/>samples = 2<br/>value = [2, 0]>, fillcolor="#e58139"] ;
8 -> 9 ;
10 [label=<X<SUB>3</SUB> &le; 0.328<br/>entropy = 0.439<br/>samples = 22<br/>value = [2, 20]>, fillcolor="#4da7e8"] ;
8 -> 10 ;
11 [label=<entropy = 0.0<br/>samples = 16<br/>value = [0, 16]>, fillcolor="#399de5"] ;
10 -> 11 ;
12 [label=<entropy = 0.918<br/>samples = 6<br/>value = [2, 4]>, fillcolor="#9ccef2"] ;
10 -> 12 ;
13 [label=<X<SUB>2</SUB> &le; 0.242<br/>entropy = 0.881<br/>samples = 10<br/>value = [7, 3]>, fillcolor="#f0b78e"] ;
7 -> 13 ;
14 [label=<entropy = 0.0<br/>samples = 2<br/>value = [0, 2]>, fillcolor="#399de5"] ;
13 -> 14 ;
15 [label=<X<SUB>5</SUB> &le; 0.843<br/>entropy = 0.544<br/>samples = 8<br/>value = [7, 1]>, fillcolor="#e99355"] ;
13 -> 15 ;
16 [label=<entropy = 0.0<br/>samples = 7<br/>value = [7, 0]>, fillcolor="#e58139"] ;
15 -> 16 ;
17 [label=<entropy = 0.0<br/>samples = 1<br/>value = [0, 1]>, fillcolor="#399de5"] ;
15 -> 17 ;
18 [label=<X<SUB>4</SUB> &le; 0.107<br/>entropy = 0.61<br/>samples = 200<br/>value = [170, 30]>, fillcolor="#ea975c"] ;
0 -> 18 [labeldistance=2.5, labelangle=-45, headlabel="False"] ;
19 [label=<X<SUB>2</SUB> &le; 0.205<br/>entropy = 0.386<br/>samples = 159<br/>value = [147, 12]>, fillcolor="#e78b49"] ;
18 -> 19 ;
20 [label=<X<SUB>0</SUB> &le; 0.227<br/>entropy = 0.874<br/>samples = 17<br/>value = [12, 5]>, fillcolor="#f0b58b"] ;
19 -> 20 ;
21 [label=<entropy = 0.0<br/>samples = 5<br/>value = [5, 0]>, fillcolor="#e58139"] ;
20 -> 21 ;
22 [label=<X<SUB>6</SUB> &le; 0.735<br/>entropy = 0.98<br/>samples = 12<br/>value = [7, 5]>, fillcolor="#f8dbc6"] ;
20 -> 22 ;
23 [label=<entropy = 0.881<br/>samples = 10<br/>value = [7, 3]>, fillcolor="#f0b78e"] ;
22 -> 23 ;
24 [label=<entropy = 0.0<br/>samples = 2<br/>value = [0, 2]>, fillcolor="#399de5"] ;
22 -> 24 ;
25 [label=<X<SUB>6</SUB> &le; 0.601<br/>entropy = 0.283<br/>samples = 142<br/>value = [135, 7]>, fillcolor="#e68843"] ;
19 -> 25 ;
26 [label=<X<SUB>0</SUB> &le; 0.682<br/>entropy = 0.469<br/>samples = 70<br/>value = [63, 7]>, fillcolor="#e88f4f"] ;
25 -> 26 ;
27 [label=<entropy = 0.334<br/>samples = 65<br/>value = [61, 4]>, fillcolor="#e78946"] ;
26 -> 27 ;
28 [label=<entropy = 0.971<br/>samples = 5<br/>value = [2, 3]>, fillcolor="#bddef6"] ;
26 -> 28 ;
29 [label=<entropy = 0.0<br/>samples = 72<br/>value = [72, 0]>, fillcolor="#e58139"] ;
25 -> 29 ;
30 [label=<X<SUB>2</SUB> &le; 0.129<br/>entropy = 0.989<br/>samples = 41<br/>value = [23, 18]>, fillcolor="#f9e4d4"] ;
18 -> 30 ;
31 [label=<entropy = 0.0<br/>samples = 5<br/>value = [0, 5]>, fillcolor="#399de5"] ;
30 -> 31 ;
32 [label=<X<SUB>6</SUB> &le; 0.733<br/>entropy = 0.944<br/>samples = 36<br/>value = [23, 13]>, fillcolor="#f4c8a9"] ;
30 -> 32 ;
33 [label=<X<SUB>1</SUB> &le; 0.006<br/>entropy = 0.996<br/>samples = 28<br/>value = [15, 13]>, fillcolor="#fceee5"] ;
32 -> 33 ;
34 [label=<entropy = 0.0<br/>samples = 5<br/>value = [5, 0]>, fillcolor="#e58139"] ;
33 -> 34 ;
35 [label=<entropy = 0.988<br/>samples = 23<br/>value = [10, 13]>, fillcolor="#d1e8f9"] ;
33 -> 35 ;
36 [label=<entropy = 0.0<br/>samples = 8<br/>value = [8, 0]>, fillcolor="#e58139"] ;
32 -> 36 ;
}