digraph Tree {
node [shape=box, style="filled, rounded", color="black", fontname=helvetica] ;
edge [fontname=helvetica] ;
0 [label=<X<SUB>6</SUB> &le; 0.226<br/>gini = 0.435<br/>samples = 269<br/>value = [183, 86]>, fillcolor="#f1bc96"] ;
1 [label=<X<SUB>5</SUB> &le; 0.671<br/>gini = 0.236<br/>samples = 66<br/>value = [9, 57]>, fillcolor="#58ace9"] ;
0 -> 1 [labeldistance=2.5, labelangle=45, headlabel="True"] ;
2 [label=<gini = 0.056<br/>samples = 35<br/>value = [1, 34]>, fillcolor="#3fa0e6"] ;
1 -> 2 ;
3 [label=<X<SUB>1</SUB> &le; 0.008<br/>gini = 0.383<br/>samples = 31<br/>value = [8, 23]>, fillcolor="#7ebfee"] ;
1 -> 3 ;
4 [label=<gini = 0.0<br/>samples = 3<br/>value = [3, 0]>, fillcolor="#e58139"] ;
3 -> 4 ;
5 [label=<X<SUB>2</SUB> &le; 0.886<br/>gini = 0.293<br/>samples = 28<br/>value = [5, 23]>, fillcolor="#64b2eb"] ;
3 -> 5 ;
6 [label=<gini = 0.252<br/>samples = 27<br/>value = [4, 23]>, fillcolor="#5baeea"] ;
5 -> 6 ;
7 [label=<gini = 0.0<br/>samples = 1<br/>value = [1, 0]>, fillcolor="#e58139"] ;
5 -> 7 ;
8 [label=<X<SUB>4</SUB> &le; 0.107<br/>gini = 0.245<br/>samples = 203<br/>value = [174, 29]>, fillcolor="#e9965a"] ;
0 -> 8 [labeldistance=2.5, labelangle=-45, headlabel="False"] ;
9 [label=<X<SUB>2</SUB> &le; 0.205<br/>gini = 0.134<br/>samples = 166<br/>value = [154, 12]>, fillcolor="#e78b48"] ;
8 -> 9 ;
10 [label=<X<SUB>6</SUB> &le; 0.265<br/>gini = 0.432<br/>samples = 19<br/>value = [13, 6]>, fillcolor="#f1bb94"] ;
9 -> 10 ;
11 [label=<gini = 0.0<br/>samples = 2<br/>value = [0, 2]>, fillcolor="#399de5"] ;
10 -> 11 ;
12 [label=<gini = 0.36<br/>samples = 17<br/>value = [13, 4]>, fillcolor="#eda876"] ;
10 -> 12 ;
13 [label=<X<SUB>1</SUB> &le; 0.705<br/>gini = 0.078<br/>samples = 147<br/>value = [141, 6]>, fillcolor="#e68641"] ;
9 -> 13 ;
14 [label=<gini = 0.066<br/>samples = 146<br/>value = [141, 5]>, fillcolor="#e68540"] ;
13 -> 14 ;
15 [label=<gini = 0.0<br/>samples = 1<br/>value = [0, 1]>, fillcolor="#399de5"] ;
13 -> 15 ;
16 [label=<X<SUB>1</SUB> &le; 0.006<br/>gini = 0.497<br/>samples = 37<br/>value = [20, 17]>, fillcolor="#fbece1"] ;
8 -> 16 ;
17 [label=<gini = 0.0<br/>samples = 6<br/>value = [6, 0]>, fillcolor="#e58139"] ;
16 -> 17 ;
18 [label=<X<SUB>2</SUB> &le; 0.28<br/>gini = 0.495<br/>samples = 31<br/>value = [14, 17]>, fillcolor="#dceefa"] ;
16 -> 18 ;
19 [label=<X<SUB>0</SUB> &le; 0.091<br/>gini = 0.32<br/>samples = 15<br/>value = [3, 12]>, fillcolor="#6ab6ec"] ;
18 -> 19 ;
20 [label=<gini = 0.0<br/>samples = 1<br/>value = [1, 0]>, fillcolor="#e58139"] ;
19 -> 20 ;
21 [label=<gini = 0.245<br/>samples = 14<br/>value = [2, 12]>, fillcolor="#5aade9"] ;
19 -> 21 ;
22 [label=<X<SUB>8</SUB> &le; 0.5<br/>gini = 0.43<br/>samples = 16<br/>value = [11, 5]>, fillcolor="#f1ba93"] ;
18 -> 22 ;
23 [label=<X<SUB>6</SUB> &le; 0.726<br/>gini = 0.5<br/>samples = 10<br/>value = [5, 5]>, fillcolor="#ffffff"] ;
22 -> 23 ;
24 [label=<X<SUB>2</SUB> &le; 0.583<br/>gini = 0.408<br/>samples = 7<br/>value = [2, 5]>, fillcolor="#88c4ef"] ;
23 -> 24 ;
25 [label=<gini = 0.0<br/>samples = 4<br/>value = [0, 4]>, fillcolor="#399de5"] ;
24 -> 25 ;
26 [label=<gini = 0.444<br/>samples = 3<br/>value = [2, 1]>, fillcolor="#f2c09c"] ;
24 -> 26 ;
27 [label=<gini = 0.0<br/>samples = 3<br/>value = [3, 0]>, fillcolor="#e58139"] ;
23 -> 27 ;
28 [label=<gini = 0.0<br/>samples = 6<br/>value = [6, 0]>, fillcolor="#e58139"] ;
22 -> 28 ;
}