digraph Tree {
node [shape=box, style="filled, rounded", color="black", fontname=helvetica] ;
edge [fontname=helvetica] ;
0 [label=<X<SUB>6</SUB> &le; 0.247<br/>entropy = 0.908<br/>samples = 269<br/>value = [182, 87]>, fillcolor="#f1bd98"] ;
1 [label=<X<SUB>5</SUB> &le; 0.671<br/>entropy = 0.661<br/>samples = 70<br/>value = [12, 58]>, fillcolor="#62b1ea"] ;
0 -> 1 [labeldistance=2.5, labelangle=45, headlabel="True"] ;
2 [label=<entropy = 0.187<br/>samples = 35<br/>value = [1, 34]>, fillcolor="#3fa0e6"] ;
1 -> 2 ;
3 [label=<entropy = 0.898<br/>samples = 35<br/>value = [11, 24]>, fillcolor="#94caf1"] ;
1 -> 3 ;
4 [label=<X<SUB>4</SUB> &le; 0.118<br/>entropy = 0.599<br/>samples = 199<br/>value = [170, 29]>, fillcolor="#e9965b"] ;
0 -> 4 [labeldistance=2.5, labelangle=-45, headlabel="False"] ;
5 [label=<entropy = 0.36<br/>samples = 161<br/>value = [150, 11]>, fillcolor="#e78a48"] ;
4 -> 5 ;
6 [label=<entropy = 0.998<br/>samples = 38<br/>value = [20, 18]>, fillcolor="#fcf2eb"] ;
4 -> 6 ;
}