digraph Tree {
node [shape=box, style="filled, rounded", color="black", fontname=helvetica] ;
edge [fontname=helvetica] ;
0 [label=<X<SUB>6</SUB> &le; 0.249<br/>gini = 0.5<br/>samples = 365<br/>value = [183, 182]>, fillcolor="#fffefe"] ;
1 [label=<gini = 0.181<br/>samples = 119<br/>value = [12, 107]>, fillcolor="#4fa8e8"] ;
0 -> 1 [labeldistance=2.5, labelangle=45, headlabel="True"] ;
2 [label=<X<SUB>4</SUB> &le; 0.093<br/>gini = 0.424<br/>samples = 246<br/>value = [171, 75]>, fillcolor="#f0b890"] ;
0 -> 2 [labeldistance=2.5, labelangle=-45, headlabel="False"] ;
3 [label=<X<SUB>2</SUB> &le; 0.217<br/>gini = 0.245<br/>samples = 168<br/>value = [144, 24]>, fillcolor="#e9965a"] ;
2 -> 3 ;
4 [label=<gini = 0.497<br/>samples = 24<br/>value = [13, 11]>, fillcolor="#fbece1"] ;
3 -> 4 ;
5 [label=<gini = 0.164<br/>samples = 144<br/>value = [131, 13]>, fillcolor="#e88e4d"] ;
3 -> 5 ;
6 [label=<X<SUB>6</SUB> &le; 0.703<br/>gini = 0.453<br/>samples = 78<br/>value = [27, 51]>, fillcolor="#a2d1f3"] ;
2 -> 6 ;
7 [label=<X<SUB>1</SUB> &le; 0.005<br/>gini = 0.332<br/>samples = 57<br/>value = [12, 45]>, fillcolor="#6eb7ec"] ;
6 -> 7 ;
8 [label=<gini = 0.0<br/>samples = 3<br/>value = [3, 0]>, fillcolor="#e58139"] ;
7 -> 8 ;
9 [label=<gini = 0.278<br/>samples = 54<br/>value = [9, 45]>, fillcolor="#61b1ea"] ;
7 -> 9 ;
10 [label=<X<SUB>2</SUB> &le; 0.207<br/>gini = 0.408<br/>samples = 21<br/>value = [15, 6]>, fillcolor="#efb388"] ;
6 -> 10 ;
11 [label=<gini = 0.408<br/>samples = 7<br/>value = [2, 5]>, fillcolor="#88c4ef"] ;
10 -> 11 ;
12 [label=<gini = 0.133<br/>samples = 14<br/>value = [13, 1]>, fillcolor="#e78b48"] ;
10 -> 12 ;
}