digraph Tree {
node [shape=box, style="filled, rounded", color="black", fontname=helvetica] ;
edge [fontname=helvetica] ;
0 [label=<X<SUB>6</SUB> &le; 0.247<br/>entropy = 1.0<br/>samples = 366<br/>value = [183, 183]>, fillcolor="#ffffff"] ;
1 [label=<entropy = 0.479<br/>samples = 126<br/>value = [13, 113]>, fillcolor="#50a8e8"] ;
0 -> 1 [labeldistance=2.5, labelangle=45, headlabel="True"] ;
2 [label=<X<SUB>4</SUB> &le; 0.079<br/>entropy = 0.871<br/>samples = 240<br/>value = [170, 70]>, fillcolor="#f0b58b"] ;
0 -> 2 [labeldistance=2.5, labelangle=-45, headlabel="False"] ;
3 [label=<X<SUB>6</SUB> &le; 0.567<br/>entropy = 0.492<br/>samples = 149<br/>value = [133, 16]>, fillcolor="#e89051"] ;
2 -> 3 ;
4 [label=<entropy = 0.706<br/>samples = 78<br/>value = [63, 15]>, fillcolor="#eb9f68"] ;
3 -> 4 ;
5 [label=<entropy = 0.107<br/>samples = 71<br/>value = [70, 1]>, fillcolor="#e5833c"] ;
3 -> 5 ;
6 [label=<X<SUB>2</SUB> &le; 0.317<br/>entropy = 0.975<br/>samples = 91<br/>value = [37, 54]>, fillcolor="#c1e0f7"] ;
2 -> 6 ;
7 [label=<entropy = 0.705<br/>samples = 47<br/>value = [9, 38]>, fillcolor="#68b4eb"] ;
6 -> 7 ;
8 [label=<X<SUB>6</SUB> &le; 0.637<br/>entropy = 0.946<br/>samples = 44<br/>value = [28, 16]>, fillcolor="#f4c9aa"] ;
6 -> 8 ;
9 [label=<entropy = 0.999<br/>samples = 31<br/>value = [15, 16]>, fillcolor="#f3f9fd"] ;
8 -> 9 ;
10 [label=<entropy = 0.0<br/>samples = 13<br/>value = [13, 0]>, fillcolor="#e58139"] ;
8 -> 10 ;
}