digraph Tree {
node [shape=box, style="filled, rounded", color="black", fontname=helvetica] ;
edge [fontname=helvetica] ;
0 [label=<X<SUB>6</SUB> &le; 0.249<br/>gini = 0.5<br/>samples = 365<br/>value = [182, 183]>, fillcolor="#fefeff"] ;
1 [label=<X<SUB>5</SUB> &le; 0.682<br/>gini = 0.188<br/>samples = 124<br/>value = [13, 111]>, fillcolor="#50a8e8"] ;
0 -> 1 [labeldistance=2.5, labelangle=45, headlabel="True"] ;
2 [label=<X<SUB>2</SUB> &le; 0.678<br/>gini = 0.056<br/>samples = 70<br/>value = [2, 68]>, fillcolor="#3fa0e6"] ;
1 -> 2 ;
3 [label=<gini = 0.029<br/>samples = 68<br/>value = [1, 67]>, fillcolor="#3c9ee5"] ;
2 -> 3 ;
4 [label=<X<SUB>1</SUB> &le; 0.021<br/>gini = 0.5<br/>samples = 2<br/>value = [1, 1]>, fillcolor="#ffffff"] ;
2 -> 4 ;
5 [label=<gini = 0.0<br/>samples = 1<br/>value = [1, 0]>, fillcolor="#e58139"] ;
4 -> 5 ;
6 [label=<gini = 0.0<br/>samples = 1<br/>value = [0, 1]>, fillcolor="#399de5"] ;
4 -> 6 ;
7 [label=<X<SUB>1</SUB> &le; 0.008<br/>gini = 0.324<br/>samples = 54<br/>value = [11, 43]>, fillcolor="#6cb6ec"] ;
1 -> 7 ;
8 [label=<gini = 0.0<br/>samples = 3<br/>value = [3, 0]>, fillcolor="#e58139"] ;
7 -> 8 ;
9 [label=<X<SUB>6</SUB> &le; 0.167<br/>gini = 0.265<br/>samples = 51<br/>value = [8, 43]>, fillcolor="#5eafea"] ;
7 -> 9 ;
10 [label=<X<SUB>1</SUB> &le; 0.229<br/>gini = 0.105<br/>samples = 36<br/>value = [2, 34]>, fillcolor="#45a3e7"] ;
9 -> 10 ;
11 [label=<X<SUB>0</SUB> &le; 0.209<br/>gini = 0.057<br/>samples = 34<br/>value = [1, 33]>, fillcolor="#3fa0e6"] ;
10 -> 11 ;
12 [label=<X<SUB>8</SUB> &le; 0.5<br/>gini = 0.375<br/>samples = 4<br/>value = [1, 3]>, fillcolor="#7bbeee"] ;
11 -> 12 ;
13 [label=<gini = 0.0<br/>samples = 3<br/>value = [0, 3]>, fillcolor="#399de5"] ;
12 -> 13 ;
14 [label=<gini = 0.0<br/>samples = 1<br/>value = [1, 0]>, fillcolor="#e58139"] ;
12 -> 14 ;
15 [label=<gini = 0.0<br/>samples = 30<br/>value = [0, 30]>, fillcolor="#399de5"] ;
11 -> 15 ;
16 [label=<X<SUB>1</SUB> &le; 0.419<br/>gini = 0.5<br/>samples = 2<br/>value = [1, 1]>, fillcolor="#ffffff"] ;
10 -> 16 ;
17 [label=<gini = 0.0<br/>samples = 1<br/>value = [1, 0]>, fillcolor="#e58139"] ;
16 -> 17 ;
18 [label=<gini = 0.0<br/>samples = 1<br/>value = [0, 1]>, fillcolor="#399de5"] ;
16 -> 18 ;
19 [label=<X<SUB>11</SUB> &le; 0.614<br/>gini = 0.48<br/>samples = 15<br/>value = [6, 9]>, fillcolor="#bddef6"] ;
9 -> 19 ;
20 [label=<X<SUB>2</SUB> &le; 0.762<br/>gini = 0.198<br/>samples = 9<br/>value = [1, 8]>, fillcolor="#52a9e8"] ;
19 -> 20 ;
21 [label=<gini = 0.0<br/>samples = 8<br/>value = [0, 8]>, fillcolor="#399de5"] ;
20 -> 21 ;
22 [label=<gini = 0.0<br/>samples = 1<br/>value = [1, 0]>, fillcolor="#e58139"] ;
20 -> 22 ;
23 [label=<X<SUB>2</SUB> &le; 0.205<br/>gini = 0.278<br/>samples = 6<br/>value = [5, 1]>, fillcolor="#ea9a61"] ;
19 -> 23 ;
24 [label=<gini = 0.0<br/>samples = 1<br/>value = [0, 1]>, fillcolor="#399de5"] ;
23 -> 24 ;
25 [label=<gini = 0.0<br/>samples = 5<br/>value = [5, 0]>, fillcolor="#e58139"] ;
23 -> 25 ;
26 [label=<X<SUB>4</SUB> &le; 0.093<br/>gini = 0.419<br/>samples = 241<br/>value = [169, 72]>, fillcolor="#f0b78d"] ;
0 -> 26 [labeldistance=2.5, labelangle=-45, headlabel="False"] ;
27 [label=<X<SUB>2</SUB> &le; 0.217<br/>gini = 0.219<br/>samples = 160<br/>value = [140, 20]>, fillcolor="#e99355"] ;
26 -> 27 ;
28 [label=<X<SUB>2</SUB> &le; 0.169<br/>gini = 0.483<br/>samples = 22<br/>value = [13, 9]>, fillcolor="#f7d8c2"] ;
27 -> 28 ;
29 [label=<X<SUB>6</SUB> &le; 0.265<br/>gini = 0.432<br/>samples = 19<br/>value = [13, 6]>, fillcolor="#f1bb94"] ;
28 -> 29 ;
30 [label=<gini = 0.0<br/>samples = 2<br/>value = [0, 2]>, fillcolor="#399de5"] ;
29 -> 30 ;
31 [label=<X<SUB>6</SUB> &le; 0.512<br/>gini = 0.36<br/>samples = 17<br/>value = [13, 4]>, fillcolor="#eda876"] ;
29 -> 31 ;
32 [label=<gini = 0.0<br/>samples = 7<br/>value = [7, 0]>, fillcolor="#e58139"] ;
31 -> 32 ;
33 [label=<X<SUB>6</SUB> &le; 0.619<br/>gini = 0.48<br/>samples = 10<br/>value = [6, 4]>, fillcolor="#f6d5bd"] ;
31 -> 33 ;
34 [label=<gini = 0.0<br/>samples = 3<br/>value = [0, 3]>, fillcolor="#399de5"] ;
33 -> 34 ;
35 [label=<X<SUB>1</SUB> &le; 0.163<br/>gini = 0.245<br/>samples = 7<br/>value = [6, 1]>, fillcolor="#e9965a"] ;
33 -> 35 ;
36 [label=<gini = 0.0<br/>samples = 6<br/>value = [6, 0]>, fillcolor="#e58139"] ;
35 -> 36 ;
37 [label=<gini = 0.0<br/>samples = 1<br/>value = [0, 1]>, fillcolor="#399de5"] ;
35 -> 37 ;
38 [label=<gini = 0.0<br/>samples = 3<br/>value = [0, 3]>, fillcolor="#399de5"] ;
28 -> 38 ;
39 [label=<X<SUB>6</SUB> &le; 0.601<br/>gini = 0.147<br/>samples = 138<br/>value = [127, 11]>, fillcolor="#e78c4a"] ;
27 -> 39 ;
40 [label=<X<SUB>3</SUB> &le; 0.085<br/>gini = 0.262<br/>samples = 71<br/>value = [60, 11]>, fillcolor="#ea985d"] ;
39 -> 40 ;
41 [label=<gini = 0.0<br/>samples = 2<br/>value = [0, 2]>, fillcolor="#399de5"] ;
40 -> 41 ;
42 [label=<X<SUB>5</SUB> &le; 0.648<br/>gini = 0.227<br/>samples = 69<br/>value = [60, 9]>, fillcolor="#e99457"] ;
40 -> 42 ;
43 [label=<X<SUB>9</SUB> &le; 0.619<br/>gini = 0.465<br/>samples = 19<br/>value = [12, 7]>, fillcolor="#f4caac"] ;
42 -> 43 ;
44 [label=<X<SUB>11</SUB> &le; 0.5<br/>gini = 0.5<br/>samples = 14<br/>value = [7, 7]>, fillcolor="#ffffff"] ;
43 -> 44 ;
45 [label=<X<SUB>3</SUB> &le; 0.317<br/>gini = 0.444<br/>samples = 9<br/>value = [3, 6]>, fillcolor="#9ccef2"] ;
44 -> 45 ;
46 [label=<X<SUB>7</SUB> &le; 0.5<br/>gini = 0.245<br/>samples = 7<br/>value = [1, 6]>, fillcolor="#5aade9"] ;
45 -> 46 ;
47 [label=<gini = 0.0<br/>samples = 6<br/>value = [0, 6]>, fillcolor="#399de5"] ;
46 -> 47 ;
48 [label=<gini = 0.0<br/>samples = 1<br/>value = [1, 0]>, fillcolor="#e58139"] ;
46 -> 48 ;
49 [label=<gini = 0.0<br/>samples = 2<br/>value = [2, 0]>, fillcolor="#e58139"] ;
45 -> 49 ;
50 [label=<X<SUB>3</SUB> &le; 0.339<br/>gini = 0.32<br/>samples = 5<br/>value = [4, 1]>, fillcolor="#eca06a"] ;
44 -> 50 ;
51 [label=<gini = 0.0<br/>samples = 4<br/>value = [4, 0]>, fillcolor="#e58139"] ;
50 -> 51 ;
52 [label=<gini = 0.0<br/>samples = 1<br/>value = [0, 1]>, fillcolor="#399de5"] ;
50 -> 52 ;
53 [label=<gini = 0.0<br/>samples = 5<br/>value = [5, 0]>, fillcolor="#e58139"] ;
43 -> 53 ;
54 [label=<X<SUB>3</SUB> &le; 0.369<br/>gini = 0.077<br/>samples = 50<br/>value = [48, 2]>, fillcolor="#e68641"] ;
42 -> 54 ;
55 [label=<gini = 0.0<br/>samples = 43<br/>value = [43, 0]>, fillcolor="#e58139"] ;
54 -> 55 ;
56 [label=<X<SUB>11</SUB> &le; 0.5<br/>gini = 0.408<br/>samples = 7<br/>value = [5, 2]>, fillcolor="#efb388"] ;
54 -> 56 ;
57 [label=<X<SUB>5</SUB> &le; 0.757<br/>gini = 0.444<br/>samples = 3<br/>value = [1, 2]>, fillcolor="#9ccef2"] ;
56 -> 57 ;
58 [label=<gini = 0.0<br/>samples = 2<br/>value = [0, 2]>, fillcolor="#399de5"] ;
57 -> 58 ;
59 [label=<gini = 0.0<br/>samples = 1<br/>value = [1, 0]>, fillcolor="#e58139"] ;
57 -> 59 ;
60 [label=<gini = 0.0<br/>samples = 4<br/>value = [4, 0]>, fillcolor="#e58139"] ;
56 -> 60 ;
61 [label=<gini = 0.0<br/>samples = 67<br/>value = [67, 0]>, fillcolor="#e58139"] ;
39 -> 61 ;
62 [label=<X<SUB>2</SUB> &le; 0.317<br/>gini = 0.46<br/>samples = 81<br/>value = [29, 52]>, fillcolor="#a7d4f4"] ;
26 -> 62 ;
63 [label=<X<SUB>4</SUB> &le; 0.281<br/>gini = 0.292<br/>samples = 45<br/>value = [8, 37]>, fillcolor="#64b2eb"] ;
62 -> 63 ;
64 [label=<X<SUB>0</SUB> &le; 0.082<br/>gini = 0.21<br/>samples = 42<br/>value = [5, 37]>, fillcolor="#54aae9"] ;
63 -> 64 ;
65 [label=<gini = 0.0<br/>samples = 1<br/>value = [1, 0]>, fillcolor="#e58139"] ;
64 -> 65 ;
66 [label=<X<SUB>2</SUB> &le; 0.169<br/>gini = 0.176<br/>samples = 41<br/>value = [4, 37]>, fillcolor="#4ea8e8"] ;
64 -> 66 ;
67 [label=<X<SUB>2</SUB> &le; 0.166<br/>gini = 0.298<br/>samples = 22<br/>value = [4, 18]>, fillcolor="#65b3eb"] ;
66 -> 67 ;
68 [label=<gini = 0.0<br/>samples = 13<br/>value = [0, 13]>, fillcolor="#399de5"] ;
67 -> 68 ;
69 [label=<X<SUB>1</SUB> &le; 0.098<br/>gini = 0.494<br/>samples = 9<br/>value = [4, 5]>, fillcolor="#d7ebfa"] ;
67 -> 69 ;
70 [label=<X<SUB>3</SUB> &le; 0.246<br/>gini = 0.49<br/>samples = 7<br/>value = [4, 3]>, fillcolor="#f8e0ce"] ;
69 -> 70 ;
71 [label=<X<SUB>5</SUB> &le; 0.701<br/>gini = 0.375<br/>samples = 4<br/>value = [1, 3]>, fillcolor="#7bbeee"] ;
70 -> 71 ;
72 [label=<gini = 0.0<br/>samples = 3<br/>value = [0, 3]>, fillcolor="#399de5"] ;
71 -> 72 ;
73 [label=<gini = 0.0<br/>samples = 1<br/>value = [1, 0]>, fillcolor="#e58139"] ;
71 -> 73 ;
74 [label=<gini = 0.0<br/>samples = 3<br/>value = [3, 0]>, fillcolor="#e58139"] ;
70 -> 74 ;
75 [label=<gini = 0.0<br/>samples = 2<br/>value = [0, 2]>, fillcolor="#399de5"] ;
69 -> 75 ;
76 [label=<gini = 0.0<br/>samples = 19<br/>value = [0, 19]>, fillcolor="#399de5"] ;
66 -> 76 ;
77 [label=<gini = 0.0<br/>samples = 3<br/>value = [3, 0]>, fillcolor="#e58139"] ;
63 -> 77 ;
78 [label=<X<SUB>3</SUB> &le; 0.289<br/>gini = 0.486<br/>samples = 36<br/>value = [21, 15]>, fillcolor="#f8dbc6"] ;
62 -> 78 ;
79 [label=<X<SUB>10</SUB> &le; 0.885<br/>gini = 0.454<br/>samples = 23<br/>value = [8, 15]>, fillcolor="#a3d1f3"] ;
78 -> 79 ;
80 [label=<gini = 0.0<br/>samples = 10<br/>value = [0, 10]>, fillcolor="#399de5"] ;
79 -> 80 ;
81 [label=<X<SUB>0</SUB> &le; 0.407<br/>gini = 0.473<br/>samples = 13<br/>value = [8, 5]>, fillcolor="#f5d0b5"] ;
79 -> 81 ;
82 [label=<X<SUB>4</SUB> &le; 0.343<br/>gini = 0.245<br/>samples = 7<br/>value = [6, 1]>, fillcolor="#e9965a"] ;
81 -> 82 ;
83 [label=<gini = 0.0<br/>samples = 5<br/>value = [5, 0]>, fillcolor="#e58139"] ;
82 -> 83 ;
84 [label=<X<SUB>4</SUB> &le; 0.494<br/>gini = 0.5<br/>samples = 2<br/>value = [1, 1]>, fillcolor="#ffffff"] ;
82 -> 84 ;
85 [label=<gini = 0.0<br/>samples = 1<br/>value = [0, 1]>, fillcolor="#399de5"] ;
84 -> 85 ;
86 [label=<gini = 0.0<br/>samples = 1<br/>value = [1, 0]>, fillcolor="#e58139"] ;
84 -> 86 ;
87 [label=<X<SUB>3</SUB> &le; 0.185<br/>gini = 0.444<br/>samples = 6<br/>value = [2, 4]>, fillcolor="#9ccef2"] ;
81 -> 87 ;
88 [label=<gini = 0.0<br/>samples = 2<br/>value = [2, 0]>, fillcolor="#e58139"] ;
87 -> 88 ;
89 [label=<gini = 0.0<br/>samples = 4<br/>value = [0, 4]>, fillcolor="#399de5"] ;
87 -> 89 ;
90 [label=<gini = 0.0<br/>samples = 13<br/>value = [13, 0]>, fillcolor="#e58139"] ;
78 -> 90 ;
}